{"learner":{"attributes":{"scikit_learn":"{\"_estimator_type\": \"regressor\"}"},"feature_names":["person_age","person_income","person_emp_length","loan_grade","loan_amnt","loan_status","loan_percent_income","cb_person_default_on_file","cb_person_cred_hist_length","home_ownership_MORTGAGE","home_ownership_OWN","home_ownership_RENT","loan_intent_DEBTCONSOLIDATION","loan_intent_EDUCATION","loan_intent_MEDICAL","loan_intent_PERSONAL","loan_intent_VENTURE"],"feature_types":["float","float","float","int","float","int","float","int","float","int","int","int","int","int","int","int","int"],"gradient_booster":{"model":{"gbtree_model_param":{"num_parallel_tree":"1","num_trees":"300"},"iteration_indptr":[0,1,2,3,4,5,6,7,8,9,10,11,12,13,14,15,16,17,18,19,20,21,22,23,24,25,26,27,28,29,30,31,32,33,34,35,36,37,38,39,40,41,42,43,44,45,46,47,48,49,50,51,52,53,54,55,56,57,58,59,60,61,62,63,64,65,66,67,68,69,70,71,72,73,74,75,76,77,78,79,80,81,82,83,84,85,86,87,88,89,90,91,92,93,94,95,96,97,98,99,100,101,102,103,104,105,106,107,108,109,110,111,112,113,114,115,116,117,118,119,120,121,122,123,124,125,126,127,128,129,130,131,132,133,134,135,136,137,138,139,140,141,142,143,144,145,146,147,148,149,150,151,152,153,154,155,156,157,158,159,160,161,162,163,164,165,166,167,168,169,170,171,172,173,174,175,176,177,178,179,180,181,182,183,184,185,186,187,188,189,190,191,192,193,194,195,196,197,198,199,200,201,202,203,204,205,206,207,208,209,210,211,212,213,214,215,216,217,218,219,220,221,222,223,224,225,226,227,228,229,230,231,232,233,234,235,236,237,238,239,240,241,242,243,244,245,246,247,248,249,250,251,252,253,254,255,256,257,258,259,260,261,262,263,264,265,266,267,268,269,270,271,272,273,274,275,276,277,278,279,280,281,282,283,284,285,286,287,288,289,290,291,292,293,294,295,296,297,298,299,300],"tree_info":[0,0,0,0,0,0,0,0,0,0,0,0,0,0,0,0,0,0,0,0,0,0,0,0,0,0,0,0,0,0,0,0,0,0,0,0,0,0,0,0,0,0,0,0,0,0,0,0,0,0,0,0,0,0,0,0,0,0,0,0,0,0,0,0,0,0,0,0,0,0,0,0,0,0,0,0,0,0,0,0,0,0,0,0,0,0,0,0,0,0,0,0,0,0,0,0,0,0,0,0,0,0,0,0,0,0,0,0,0,0,0,0,0,0,0,0,0,0,0,0,0,0,0,0,0,0,0,0,0,0,0,0,0,0,0,0,0,0,0,0,0,0,0,0,0,0,0,0,0,0,0,0,0,0,0,0,0,0,0,0,0,0,0,0,0,0,0,0,0,0,0,0,0,0,0,0,0,0,0,0,0,0,0,0,0,0,0,0,0,0,0,0,0,0,0,0,0,0,0,0,0,0,0,0,0,0,0,0,0,0,0,0,0,0,0,0,0,0,0,0,0,0,0,0,0,0,0,0,0,0,0,0,0,0,0,0,0,0,0,0,0,0,0,0,0,0,0,0,0,0,0,0,0,0,0,0,0,0,0,0,0,0,0,0,0,0,0,0,0,0,0,0,0,0,0,0,0,0,0,0,0,0,0,0,0,0,0,0,0,0,0,0,0,0,0,0,0,0,0,0],"trees":[{"base_weights":[-4.8752288E-8,-3.676758E0,1.8237344E0,-3.4914327E0,-3.7572129E0,-2.7940338E-2,3.492208E0,-3.5895789E0,-3.383242E-2,-3.8274145E0,-3.6304777E0,-7.222787E-2,7.815018E-3,2.421024E0,4.8777814E0,-3.6080852E-2,-3.0791252E0,-3.88789E0,-3.6836774E0,-3.6530442E0,-3.0793251E-2,9.175494E-3,-1.0137619E-1,1.03081495E-1,-1.0453686E-2,2.343888E0,2.4959216E0,4.3391104E0,6.4436803E0,-3.114979E-2,-6.97E-3,-2.0852E-2,-3.8901E-2,-3.6852326E-2,-1.0620003E-2,-3.6539197E-2,-1.0420003E-2,-4.102859E-3,2.3575181E-4,-7.24605E-4,-2.109309E-3,2.465634E-3,2.7136414E-4,-4.600791E-4,5.00665E-4,2.3509743E-2,1.2212497E-2,2.589906E-2,2.4414735E-2,4.319054E-2,5.3698663E-2,5.978328E-2,7.932251E-2],"categories":[],"categories_nodes":[],"categories_segments":[],"categories_sizes":[],"default_left":[0,0,0,0,0,0,0,0,0,0,0,0,0,0,0,0,0,0,0,0,0,0,0,0,0,0,0,0,0,0,0,0,0,0,0,0,0,0,0,0,0,0,0,0,0,0,0,0,0,0,0,0,0],"id":0,"left_children":[1,3,5,7,9,11,13,15,-1,17,19,21,23,25,27,-1,29,31,33,35,-1,37,39,41,43,45,47,49,51,-1,-1,-1,-1,-1,-1,-1,-1,-1,-1,-1,-1,-1,-1,-1,-1,-1,-1,-1,-1,-1,-1,-1,-1],"loss_changes":[1.5111358E5,9.828906E1,4.6539887E4,1.20234375E1,3.234375E1,1.1308456E1,1.1749023E4,8.7890625E-3,0E0,1.4589844E1,1.2035156E1,7.5700703E0,6.879119E0,1.9978516E1,2.8855E3,0E0,1.9284363E0,1.1445312E0,1.796875E-1,2.9101562E-1,0E0,5.095448E0,7.425997E0,6.9236383E0,7.1396523E0,1.4782227E1,5.2060547E0,3E1,5.635469E2,0E0,0E0,0E0,0E0,0E0,0E0,0E0,0E0,0E0,0E0,0E0,0E0,0E0,0E0,0E0,0E0,0E0,0E0,0E0,0E0,0E0,0E0,0E0,0E0],"parents":[2147483647,0,0,1,1,2,2,3,3,4,4,5,5,6,6,7,7,9,9,10,10,11,11,12,12,13,13,14,14,16,16,17,17,18,18,19,19,21,21,22,22,23,23,24,24,25,25,26,26,27,27,28,28],"right_children":[2,4,6,8,10,12,14,16,-1,18,20,22,24,26,28,-1,30,32,34,36,-1,38,40,42,44,46,48,50,52,-1,-1,-1,-1,-1,-1,-1,-1,-1,-1,-1,-1,-1,-1,-1,-1,-1,-1,-1,-1,-1,-1,-1,-1],"split_conditions":[2E0,1.3862944E0,3E0,1.3102826E-1,1.5700375E-1,8.987197E0,4E0,1E0,-3.383242E-2,1E0,1.0096172E1,1.0433998E1,9.169518E0,1.609438E0,5E0,-3.6080852E-2,9.574984E0,1.1133441E0,3.4011974E0,1.4465649E0,-3.0793251E-2,9.615806E0,8.740336E0,1.3862944E0,9.632335E0,4.1210964E-1,8.764053E0,1.0308952E1,6E0,-3.114979E-2,-6.97E-3,-2.0852E-2,-3.8901E-2,-3.6852326E-2,-1.0620003E-2,-3.6539197E-2,-1.0420003E-2,-4.102859E-3,2.3575181E-4,-7.24605E-4,-2.109309E-3,2.465634E-3,2.7136414E-4,-4.600791E-4,5.00665E-4,2.3509743E-2,1.2212497E-2,2.589906E-2,2.4414735E-2,4.319054E-2,5.3698663E-2,5.978328E-2,7.932251E-2],"split_indices":[3,2,3,6,6,4,3,5,0,11,4,1,4,2,3,0,4,0,8,0,0,1,4,2,4,6,4,4,3,0,0,0,0,0,0,0,0,0,0,0,0,0,0,0,0,0,0,0,0,0,0,0,0],"split_type":[0,0,0,0,0,0,0,0,0,0,0,0,0,0,0,0,0,0,0,0,0,0,0,0,0,0,0,0,0,0,0,0,0,0,0,0,0,0,0,0,0,0,0,0,0,0,0,0,0,0,0,0,0],"sum_hessian":[2.2534E4,7.471E3,1.5063E4,2.275E3,5.196E3,7.14E3,7.923E3,1.176E3,1.099E3,3.325E3,1.871E3,3.189E3,3.951E3,4.47E3,3.453E3,1.129E3,4.7E1,2.322E3,1.003E3,1.792E3,7.9E1,8.41E2,2.348E3,6.35E2,3.316E3,2.218E3,2.252E3,2.572E3,8.81E2,4.6E1,1E0,4E0,2.318E3,1.002E3,1E0,1.791E3,1E0,2.7E1,8.14E2,1.859E3,4.89E2,2.19E2,4.16E2,2.089E3,1.227E3,2.203E3,1.5E1,8.09E2,1.443E3,2.528E3,4.4E1,6.75E2,2.06E2],"tree_param":{"num_deleted":"0","num_feature":"17","num_nodes":"53","size_leaf_vector":"1"}},{"base_weights":[1.0064892E-6,-3.6400294E0,1.805518E0,-3.4565654E0,-3.7196763E0,-2.7661534E-2,3.4573264E0,-3.5537455E-2,-3.34944E-2,-3.7891724E0,-3.5942147E0,-7.15075E-2,7.737327E-3,2.396833E0,4.829072E0,-3.8490365E0,-3.6468885E0,-3.6165402E0,-3.0489169E-2,9.07933E-3,-1.0036344E-1,1.02054834E-1,-1.0349399E-2,2.320465E0,2.4709847E0,4.295757E0,6.379401E0,-2.0685183E-2,-3.8512155E-2,-3.6484174E-2,-1.0566902E-2,-3.617401E-2,-1.0367904E-2,-4.0632975E-3,2.3339911E-4,-7.1736093E-4,-2.0882566E-3,2.4410933E-3,2.686527E-4,-4.554846E-4,4.956623E-4,2.327475E-2,1.2098002E-2,2.5640389E-2,2.4170753E-2,4.2758804E-2,5.3173613E-2,5.918634E-2,7.853311E-2],"categories":[],"categories_nodes":[],"categories_segments":[],"categories_sizes":[],"default_left":[0,0,0,0,0,0,0,0,0,0,0,0,0,0,0,0,0,0,0,0,0,0,0,0,0,0,0,0,0,0,0,0,0,0,0,0,0,0,0,0,0,0,0,0,0,0,0,0,0],"id":1,"left_children":[1,3,5,7,9,11,13,-1,-1,15,17,19,21,23,25,27,29,31,-1,33,35,37,39,41,43,45,47,-1,-1,-1,-1,-1,-1,-1,-1,-1,-1,-1,-1,-1,-1,-1,-1,-1,-1,-1,-1,-1,-1],"loss_changes":[1.4810967E5,9.6328125E1,4.5614805E4,1.1792969E1,3.1695312E1,1.108408E1,1.15156875E4,0E0,0E0,1.4292969E1,1.1763672E1,7.4189663E0,6.742753E0,1.9582031E1,2.828414E3,1.046875E0,1.2109375E-1,2.3242188E-1,0E0,4.9974713E0,7.278631E0,6.786567E0,6.997723E0,1.4461914E1,5.1054688E0,2.9511719E1,5.525117E2,0E0,0E0,0E0,0E0,0E0,0E0,0E0,0E0,0E0,0E0,0E0,0E0,0E0,0E0,0E0,0E0,0E0,0E0,0E0,0E0,0E0,0E0],"parents":[2147483647,0,0,1,1,2,2,3,3,4,4,5,5,6,6,9,9,10,10,11,11,12,12,13,13,14,14,15,15,16,16,17,17,19,19,20,20,21,21,22,22,23,23,24,24,25,25,26,26],"right_children":[2,4,6,8,10,12,14,-1,-1,16,18,20,22,24,26,28,30,32,-1,34,36,38,40,42,44,46,48,-1,-1,-1,-1,-1,-1,-1,-1,-1,-1,-1,-1,-1,-1,-1,-1,-1,-1,-1,-1,-1,-1],"split_conditions":[2E0,1.3862944E0,3E0,1.3102826E-1,1.5700375E-1,8.987197E0,4E0,-3.5537455E-2,-3.34944E-2,1E0,1.0096172E1,1.0433998E1,9.169518E0,1.609438E0,5E0,1.1133441E0,3.4011974E0,1.4465649E0,-3.0489169E-2,9.615806E0,8.740336E0,1.3862944E0,9.632335E0,4.1210964E-1,8.764053E0,1.0308952E1,6E0,-2.0685183E-2,-3.8512155E-2,-3.6484174E-2,-1.0566902E-2,-3.617401E-2,-1.0367904E-2,-4.0632975E-3,2.3339911E-4,-7.1736093E-4,-2.0882566E-3,2.4410933E-3,2.686527E-4,-4.554846E-4,4.956623E-4,2.327475E-2,1.2098002E-2,2.5640389E-2,2.4170753E-2,4.2758804E-2,5.3173613E-2,5.918634E-2,7.853311E-2],"split_indices":[3,2,3,6,6,4,3,0,0,11,4,1,4,2,3,0,8,0,0,1,4,2,4,6,4,4,3,0,0,0,0,0,0,0,0,0,0,0,0,0,0,0,0,0,0,0,0,0,0],"split_type":[0,0,0,0,0,0,0,0,0,0,0,0,0,0,0,0,0,0,0,0,0,0,0,0,0,0,0,0,0,0,0,0,0,0,0,0,0,0,0,0,0,0,0,0,0,0,0,0,0],"sum_hessian":[2.2534E4,7.471E3,1.5063E4,2.275E3,5.196E3,7.14E3,7.923E3,1.176E3,1.099E3,3.325E3,1.871E3,3.189E3,3.951E3,4.47E3,3.453E3,2.322E3,1.003E3,1.792E3,7.9E1,8.41E2,2.348E3,6.35E2,3.316E3,2.218E3,2.252E3,2.572E3,8.81E2,4E0,2.318E3,1.002E3,1E0,1.791E3,1E0,2.7E1,8.14E2,1.859E3,4.89E2,2.19E2,4.16E2,2.089E3,1.227E3,2.203E3,1.5E1,8.09E2,1.443E3,2.528E3,4.4E1,6.75E2,2.06E2],"tree_param":{"num_deleted":"0","num_feature":"17","num_nodes":"49","size_leaf_vector":"1"}},{"base_weights":[3.751514E-6,-3.603663E0,1.7874837E0,-3.4220302E0,-3.682515E0,-2.738548E-2,3.4227934E0,-3.518238E0,-3.3159766E-2,-3.7513127E0,-3.5583138E0,-7.079464E-2,7.660722E-3,2.3728838E0,4.7808485E0,-3.5365295E-2,-3.0143309E0,-3.8105714E0,-3.610467E0,-3.580401E0,-3.018809E-2,8.983755E-3,-9.93611E-2,1.0103825E-1,-1.0245751E-2,2.2972765E0,2.4462967E0,4.252836E0,6.3157635E0,-3.1121463E-2,-1.550686E-2,-2.0519702E-2,-3.81272E-2,-2.1322204E-2,-3.615731E-2,-3.5812475E-2,-1.0316062E-2,-4.0241126E-3,2.3106548E-4,-7.101932E-4,-2.0674139E-3,2.4167902E-3,2.659698E-4,-4.509282E-4,4.9070717E-4,2.2996971E-2,-2.5718973E-3,2.5384301E-2,2.3929212E-2,4.233138E-2,5.265369E-2,5.8595352E-2,7.775157E-2],"categories":[],"categories_nodes":[],"categories_segments":[],"categories_sizes":[],"default_left":[0,0,0,0,0,0,0,0,0,0,0,0,0,0,0,0,0,0,0,0,0,0,0,0,0,0,0,0,0,0,0,0,0,0,0,0,0,0,0,0,0,0,0,0,0,0,0,0,0,0,0,0,0],"id":2,"left_children":[1,3,5,7,9,11,13,15,-1,17,19,21,23,25,27,-1,29,31,33,35,-1,37,39,41,43,45,47,49,51,-1,-1,-1,-1,-1,-1,-1,-1,-1,-1,-1,-1,-1,-1,-1,-1,-1,-1,-1,-1,-1,-1,-1,-1],"loss_changes":[1.4516525E5,9.441406E1,4.4708137E4,1.15546875E1,3.10625E1,1.086433E1,1.1286977E4,1.8847656E-1,0E0,1.4E1,1.15E1,7.2708616E0,6.609025E0,1.9195312E1,2.7724453E3,0E0,2.0460815E0,9.609375E-1,1.0449219E-1,1.7382812E-1,0E0,4.901358E0,7.134144E0,6.6521606E0,6.85847E0,1.4311523E1,5.0058594E0,2.903125E1,5.416914E2,0E0,0E0,0E0,0E0,0E0,0E0,0E0,0E0,0E0,0E0,0E0,0E0,0E0,0E0,0E0,0E0,0E0,0E0,0E0,0E0,0E0,0E0,0E0,0E0],"parents":[2147483647,0,0,1,1,2,2,3,3,4,4,5,5,6,6,7,7,9,9,10,10,11,11,12,12,13,13,14,14,16,16,17,17,18,18,19,19,21,21,22,22,23,23,24,24,25,25,26,26,27,27,28,28],"right_children":[2,4,6,8,10,12,14,16,-1,18,20,22,24,26,28,-1,30,32,34,36,-1,38,40,42,44,46,48,50,52,-1,-1,-1,-1,-1,-1,-1,-1,-1,-1,-1,-1,-1,-1,-1,-1,-1,-1,-1,-1,-1,-1,-1,-1],"split_conditions":[2E0,1.3862944E0,3E0,1.3102826E-1,1.5700375E-1,8.987197E0,4E0,1E0,-3.3159766E-2,1E0,1.0096172E1,1.0433998E1,9.169518E0,1.609438E0,5E0,-3.5365295E-2,8.9996195E0,1.1133441E0,1.9802628E-2,1.4465649E0,-3.018809E-2,9.615806E0,8.740336E0,1.3862944E0,9.632335E0,1.4252466E0,8.764053E0,1.0308952E1,6E0,-3.1121463E-2,-1.550686E-2,-2.0519702E-2,-3.81272E-2,-2.1322204E-2,-3.615731E-2,-3.5812475E-2,-1.0316062E-2,-4.0241126E-3,2.3106548E-4,-7.101932E-4,-2.0674139E-3,2.4167902E-3,2.659698E-4,-4.509282E-4,4.9070717E-4,2.2996971E-2,-2.5718973E-3,2.5384301E-2,2.3929212E-2,4.233138E-2,5.265369E-2,5.8595352E-2,7.775157E-2],"split_indices":[3,2,3,6,6,4,3,5,0,11,4,1,4,2,3,0,4,0,6,0,0,1,4,2,4,0,4,4,3,0,0,0,0,0,0,0,0,0,0,0,0,0,0,0,0,0,0,0,0,0,0,0,0],"split_type":[0,0,0,0,0,0,0,0,0,0,0,0,0,0,0,0,0,0,0,0,0,0,0,0,0,0,0,0,0,0,0,0,0,0,0,0,0,0,0,0,0,0,0,0,0,0,0,0,0,0,0,0,0],"sum_hessian":[2.2534E4,7.471E3,1.5063E4,2.275E3,5.196E3,7.14E3,7.923E3,1.176E3,1.099E3,3.325E3,1.871E3,3.189E3,3.951E3,4.47E3,3.453E3,1.129E3,4.7E1,2.322E3,1.003E3,1.792E3,7.9E1,8.41E2,2.348E3,6.35E2,3.316E3,2.218E3,2.252E3,2.572E3,8.81E2,4.3E1,4E0,4E0,2.318E3,5E0,9.98E2,1.791E3,1E0,2.7E1,8.14E2,1.859E3,4.89E2,2.19E2,4.16E2,2.089E3,1.227E3,2.216E3,2E0,8.09E2,1.443E3,2.528E3,4.4E1,6.75E2,2.06E2],"tree_param":{"num_deleted":"0","num_feature":"17","num_nodes":"53","size_leaf_vector":"1"}},{"base_weights":[3.2298392E-6,-3.5676677E0,1.7696286E0,-3.3878603E0,-3.645727E0,-2.7112074E-2,3.3886032E0,-3.4831254E0,-3.2828465E-2,-3.7138348E0,-3.5227716E0,-7.008848E-2,7.5847516E-3,2.3491704E0,4.733107E0,-3.3921626E0,-3.5995052E0,-3.7724912E0,-3.574419E0,-3.5446227E0,-2.9889978E-2,8.889692E-3,-9.836841E-2,1.00032076E-1,-1.01433415E-2,2.2743132E0,2.4218557E0,4.2103443E0,6.2527604E0,-3.434111E-2,-2.9281516E-2,-2.1779513E-2,-3.6299985E-2,-2.0355549E-2,-3.7746094E-2,-3.5759225E-2,-1.033328E-2,-3.5454553E-2,-1.0264482E-2,-3.985305E-3,2.2876043E-4,-7.0309214E-4,-2.0467804E-3,2.392734E-3,2.6331542E-4,1.0343433E-4,-1.0910291E-3,2.2812478E-2,1.1768985E-2,2.5130775E-2,2.3690082E-2,4.190823E-2,5.2138858E-2,5.801026E-2,7.697782E-2],"categories":[],"categories_nodes":[],"categories_segments":[],"categories_sizes":[],"default_left":[0,0,0,0,0,0,0,0,0,0,0,0,0,0,0,0,0,0,0,0,0,0,0,0,0,0,0,0,0,0,0,0,0,0,0,0,0,0,0,0,0,0,0,0,0,0,0,0,0,0,0,0,0,0,0],"id":3,"left_children":[1,3,5,7,9,11,13,15,-1,17,19,21,23,25,27,29,31,33,35,37,-1,39,41,43,45,47,49,51,53,-1,-1,-1,-1,-1,-1,-1,-1,-1,-1,-1,-1,-1,-1,-1,-1,-1,-1,-1,-1,-1,-1,-1,-1,-1,-1],"loss_changes":[1.422797E5,9.253125E1,4.381943E4,1.13359375E1,3.04375E1,1.0648798E1,1.1062836E4,2.5E-1,0E0,1.3714844E1,1.1238281E1,7.1257286E0,6.4780064E0,1.8816406E1,2.7175938E3,3.1411133E0,1.3767578E1,8.6328125E-1,1.3964844E-1,1.2109375E-1,0E0,4.807104E0,6.992586E0,6.5204344E0,6.72589E0,1.4202148E1,4.908203E0,2.8558594E1,5.3108203E2,0E0,0E0,0E0,0E0,0E0,0E0,0E0,0E0,0E0,0E0,0E0,0E0,0E0,0E0,0E0,0E0,0E0,0E0,0E0,0E0,0E0,0E0,0E0,0E0,0E0,0E0],"parents":[2147483647,0,0,1,1,2,2,3,3,4,4,5,5,6,6,7,7,9,9,10,10,11,11,12,12,13,13,14,14,15,15,16,16,17,17,18,18,19,19,21,21,22,22,23,23,24,24,25,25,26,26,27,27,28,28],"right_children":[2,4,6,8,10,12,14,16,-1,18,20,22,24,26,28,30,32,34,36,38,-1,40,42,44,46,48,50,52,54,-1,-1,-1,-1,-1,-1,-1,-1,-1,-1,-1,-1,-1,-1,-1,-1,-1,-1,-1,-1,-1,-1,-1,-1,-1,-1],"split_conditions":[2E0,1.3862944E0,3E0,1.3102826E-1,1.5700375E-1,8.987197E0,4E0,1E0,-3.2828465E-2,1E0,1.0096172E1,1.0433998E1,9.169518E0,1.609438E0,5E0,9.169518E0,1.012503E1,1.1133441E0,3.4011974E0,1.4465649E0,-2.9889978E-2,9.615806E0,8.740336E0,1.3862944E0,1.2517647E0,4.1210964E-1,8.764053E0,1.0308952E1,6E0,-3.434111E-2,-2.9281516E-2,-2.1779513E-2,-3.6299985E-2,-2.0355549E-2,-3.7746094E-2,-3.5759225E-2,-1.033328E-2,-3.5454553E-2,-1.0264482E-2,-3.985305E-3,2.2876043E-4,-7.0309214E-4,-2.0467804E-3,2.392734E-3,2.6331542E-4,1.0343433E-4,-1.0910291E-3,2.2812478E-2,1.1768985E-2,2.5130775E-2,2.3690082E-2,4.190823E-2,5.2138858E-2,5.801026E-2,7.697782E-2],"split_indices":[3,2,3,6,6,4,3,9,0,11,4,1,4,2,3,4,1,0,8,0,0,1,4,2,0,6,4,4,3,0,0,0,0,0,0,0,0,0,0,0,0,0,0,0,0,0,0,0,0,0,0,0,0,0,0],"split_type":[0,0,0,0,0,0,0,0,0,0,0,0,0,0,0,0,0,0,0,0,0,0,0,0,0,0,0,0,0,0,0,0,0,0,0,0,0,0,0,0,0,0,0,0,0,0,0,0,0,0,0,0,0,0,0],"sum_hessian":[2.2534E4,7.471E3,1.5063E4,2.275E3,5.196E3,7.14E3,7.923E3,1.176E3,1.099E3,3.325E3,1.871E3,3.189E3,3.951E3,4.47E3,3.453E3,6.77E2,4.99E2,2.322E3,1.003E3,1.792E3,7.9E1,8.41E2,2.348E3,6.35E2,3.316E3,2.218E3,2.252E3,2.572E3,8.81E2,6.15E2,6.2E1,1.2E1,4.87E2,4E0,2.318E3,1.002E3,1E0,1.791E3,1E0,2.7E1,8.14E2,1.859E3,4.89E2,2.19E2,4.16E2,2.748E3,5.68E2,2.203E3,1.5E1,8.09E2,1.443E3,2.528E3,4.4E1,6.75E2,2.06E2],"tree_param":{"num_deleted":"0","num_feature":"17","num_nodes":"55","size_leaf_vector":"1"}},{"base_weights":[1.9973204E-6,-3.5320356E0,1.7519526E0,-3.35405E0,-3.609304E0,-2.6841547E-2,3.3547566E0,-3.4483979E0,-3.250048E-2,-3.6733904E0,-3.4813027E0,-6.9389835E-2,7.5096353E-3,2.3256972E0,4.685842E0,-3.4664553E-2,-2.9514587E0,-3.7219079E0,-3.4872036E0,-3.5153997E0,-3.2125893E0,8.79622E-3,-9.7386114E-2,1.5052575E-2,-2.0587148E-1,2.2515852E0,2.3976583E0,4.1682777E0,6.1903863E0,-3.0477898E-2,-1.5134516E-2,-3.740656E-2,-3.281001E-2,-3.5274792E-2,-3.0142266E-2,-3.5163444E-2,-1.0281615E-2,-6.243739E-3,-3.2220304E-2,-3.9468743E-3,2.2647441E-4,-6.9606735E-4,-2.0263565E-3,1.137194E-3,-3.5980538E-5,-1.2725833E-3,-6.515342E-3,2.2539828E-2,-2.7068362E-3,2.4879772E-2,2.3453342E-2,4.1489314E-2,5.1629048E-2,5.743102E-2,7.621176E-2],"categories":[],"categories_nodes":[],"categories_segments":[],"categories_sizes":[],"default_left":[0,0,0,0,0,0,0,0,0,0,0,0,0,0,0,0,0,0,0,0,0,0,0,0,0,0,0,0,0,0,0,0,0,0,0,0,0,0,0,0,0,0,0,0,0,0,0,0,0,0,0,0,0,0,0],"id":4,"left_children":[1,3,5,7,9,11,13,15,-1,17,19,21,23,25,27,-1,29,31,33,35,37,39,41,43,45,47,49,51,53,-1,-1,-1,-1,-1,-1,-1,-1,-1,-1,-1,-1,-1,-1,-1,-1,-1,-1,-1,-1,-1,-1,-1,-1,-1,-1],"loss_changes":[1.3945178E5,9.064844E1,4.2948434E4,1.1125E1,2.984375E1,1.0437692E1,1.0843133E4,3.3007812E-1,0E0,1.8140625E1,4.767578E0,6.98351E0,6.3639245E0,1.8445312E1,2.6638203E3,0E0,2.036499E0,1.01953125E1,3.2353516E0,1.5625E-2,3.095459E0,4.7146597E0,6.8538227E0,7.0262866E0,4.646806E0,1.402832E1,4.8115234E0,2.8089844E1,5.206836E2,0E0,0E0,0E0,0E0,0E0,0E0,0E0,0E0,0E0,0E0,0E0,0E0,0E0,0E0,0E0,0E0,0E0,0E0,0E0,0E0,0E0,0E0,0E0,0E0,0E0,0E0],"parents":[2147483647,0,0,1,1,2,2,3,3,4,4,5,5,6,6,7,7,9,9,10,10,11,11,12,12,13,13,14,14,16,16,17,17,18,18,19,19,20,20,21,21,22,22,23,23,24,24,25,25,26,26,27,27,28,28],"right_children":[2,4,6,8,10,12,14,16,-1,18,20,22,24,26,28,-1,30,32,34,36,38,40,42,44,46,48,50,52,54,-1,-1,-1,-1,-1,-1,-1,-1,-1,-1,-1,-1,-1,-1,-1,-1,-1,-1,-1,-1,-1,-1,-1,-1,-1,-1],"split_conditions":[2E0,1.3862944E0,3E0,1.3102826E-1,1E0,8.987197E0,4E0,1E0,-3.250048E-2,9.413281E0,9.574984E0,1.0433998E1,2.7725887E0,1.609438E0,5E0,-3.4664553E-2,8.9996195E0,1E0,1.0096172E1,3.4011974E0,8.61777E-2,9.615806E0,8.740336E0,9.169518E0,1E0,1.4252466E0,8.764053E0,1.0308952E1,6E0,-3.0477898E-2,-1.5134516E-2,-3.740656E-2,-3.281001E-2,-3.5274792E-2,-3.0142266E-2,-3.5163444E-2,-1.0281615E-2,-6.243739E-3,-3.2220304E-2,-3.9468743E-3,2.2647441E-4,-6.9606735E-4,-2.0263565E-3,1.137194E-3,-3.5980538E-5,-1.2725833E-3,-6.515342E-3,2.2539828E-2,-2.7068362E-3,2.4879772E-2,2.3453342E-2,4.1489314E-2,5.1629048E-2,5.743102E-2,7.621176E-2],"split_indices":[3,2,3,6,11,4,3,5,0,4,4,1,8,2,3,0,4,5,4,8,6,1,4,4,14,0,4,4,3,0,0,0,0,0,0,0,0,0,0,0,0,0,0,0,0,0,0,0,0,0,0,0,0,0,0],"split_type":[0,0,0,0,0,0,0,0,0,0,0,0,0,0,0,0,0,0,0,0,0,0,0,0,0,0,0,0,0,0,0,0,0,0,0,0,0,0,0,0,0,0,0,0,0,0,0,0,0,0,0,0,0,0,0],"sum_hessian":[2.2534E4,7.471E3,1.5063E4,2.275E3,5.196E3,7.14E3,7.923E3,1.176E3,1.099E3,3.444E3,1.752E3,3.189E3,3.951E3,4.47E3,3.453E3,1.129E3,4.7E1,2.717E3,7.27E2,1.544E3,2.08E2,8.41E2,2.348E3,3.817E3,1.34E2,2.218E3,2.252E3,2.572E3,8.81E2,4.3E1,4E0,2.599E3,1.18E2,6.64E2,6.3E1,1.543E3,1E0,1E0,2.07E2,2.7E1,8.14E2,1.859E3,4.89E2,6.06E2,3.211E3,1.15E2,1.9E1,2.216E3,2E0,8.09E2,1.443E3,2.528E3,4.4E1,6.75E2,2.06E2],"tree_param":{"num_deleted":"0","num_feature":"17","num_nodes":"55","size_leaf_vector":"1"}},{"base_weights":[-2.3817525E-7,-3.4967597E0,1.7344519E0,-3.3205593E0,-3.573253E0,-2.6574727E-2,3.321246E0,-3.4139826E0,-3.2175776E-2,-3.6402416E0,-3.4523249E0,-6.8697736E-2,7.433111E-3,2.3024552E0,4.639049E0,-3.323975E0,-3.5292048E0,-3.6976871E0,-3.5037014E0,-3.4737391E0,-2.9292228E-2,8.70429E-3,-9.6413285E-2,1.4902621E-2,-2.0387076E-1,2.229078E0,2.3737032E0,4.126631E0,6.1286335E0,-3.365402E-2,-2.8661508E-2,-2.126172E-2,-3.5593487E-2,-1.989345E-2,-3.6997758E-2,-2.0553496E-2,-3.508893E-2,-3.4745555E-2,-1.0052061E-2,-3.9088116E-3,2.2421699E-4,-6.8910926E-4,-2.0061322E-3,1.125845E-3,-3.5618257E-5,-1.259971E-3,-6.4534447E-3,2.2359384E-2,1.1447334E-2,2.4631286E-2,2.3218967E-2,4.107458E-2,5.112423E-2,5.6857556E-2,7.5453326E-2],"categories":[],"categories_nodes":[],"categories_segments":[],"categories_sizes":[],"default_left":[0,0,0,0,0,0,0,0,0,0,0,0,0,0,0,0,0,0,0,0,0,0,0,0,0,0,0,0,0,0,0,0,0,0,0,0,0,0,0,0,0,0,0,0,0,0,0,0,0,0,0,0,0,0,0],"id":5,"left_children":[1,3,5,7,9,11,13,15,-1,17,19,21,23,25,27,29,31,33,35,37,-1,39,41,43,45,47,49,51,53,-1,-1,-1,-1,-1,-1,-1,-1,-1,-1,-1,-1,-1,-1,-1,-1,-1,-1,-1,-1,-1,-1,-1,-1,-1,-1],"loss_changes":[1.3667997E5,8.884375E1,4.2094734E4,1.0912109E1,2.953125E1,1.02300825E1,1.0627805E4,4.7558594E-1,0E0,1.31328125E1,1.0794922E1,6.8441515E0,6.240624E0,1.8082031E1,2.6111094E3,3.2138672E0,1.3578613E1,9.277344E-1,3.3691406E-1,1.23046875E-1,0E0,4.6239996E0,6.717808E0,6.886706E0,4.5598774E0,1.3948242E1,4.7177734E0,2.7636719E1,5.1048828E2,0E0,0E0,0E0,0E0,0E0,0E0,0E0,0E0,0E0,0E0,0E0,0E0,0E0,0E0,0E0,0E0,0E0,0E0,0E0,0E0,0E0,0E0,0E0,0E0,0E0,0E0],"parents":[2147483647,0,0,1,1,2,2,3,3,4,4,5,5,6,6,7,7,9,9,10,10,11,11,12,12,13,13,14,14,15,15,16,16,17,17,18,18,19,19,21,21,22,22,23,23,24,24,25,25,26,26,27,27,28,28],"right_children":[2,4,6,8,10,12,14,16,-1,18,20,22,24,26,28,30,32,34,36,38,-1,40,42,44,46,48,50,52,54,-1,-1,-1,-1,-1,-1,-1,-1,-1,-1,-1,-1,-1,-1,-1,-1,-1,-1,-1,-1,-1,-1,-1,-1,-1,-1],"split_conditions":[2E0,1.3862944E0,3E0,1.3102826E-1,1.5700375E-1,8.987197E0,4E0,1E0,-3.2175776E-2,1E0,1.0096172E1,1.0433998E1,2.7725887E0,1.609438E0,5E0,9.169518E0,1.012503E1,1.1133441E0,1.9802628E-2,1.4465649E0,-2.9292228E-2,9.615806E0,8.740336E0,9.169518E0,1E0,4.1210964E-1,8.764053E0,1.0308952E1,6E0,-3.365402E-2,-2.8661508E-2,-2.126172E-2,-3.5593487E-2,-1.989345E-2,-3.6997758E-2,-2.0553496E-2,-3.508893E-2,-3.4745555E-2,-1.0052061E-2,-3.9088116E-3,2.2421699E-4,-6.8910926E-4,-2.0061322E-3,1.125845E-3,-3.5618257E-5,-1.259971E-3,-6.4534447E-3,2.2359384E-2,1.1447334E-2,2.4631286E-2,2.3218967E-2,4.107458E-2,5.112423E-2,5.6857556E-2,7.5453326E-2],"split_indices":[3,2,3,6,6,4,3,9,0,11,4,1,8,2,3,4,1,0,6,0,0,1,4,4,14,6,4,4,3,0,0,0,0,0,0,0,0,0,0,0,0,0,0,0,0,0,0,0,0,0,0,0,0,0,0],"split_type":[0,0,0,0,0,0,0,0,0,0,0,0,0,0,0,0,0,0,0,0,0,0,0,0,0,0,0,0,0,0,0,0,0,0,0,0,0,0,0,0,0,0,0,0,0,0,0,0,0,0,0,0,0,0,0],"sum_hessian":[2.2534E4,7.471E3,1.5063E4,2.275E3,5.196E3,7.14E3,7.923E3,1.176E3,1.099E3,3.325E3,1.871E3,3.189E3,3.951E3,4.47E3,3.453E3,6.77E2,4.99E2,2.322E3,1.003E3,1.792E3,7.9E1,8.41E2,2.348E3,3.817E3,1.34E2,2.218E3,2.252E3,2.572E3,8.81E2,6.15E2,6.2E1,1.2E1,4.87E2,4E0,2.318E3,5E0,9.98E2,1.791E3,1E0,2.7E1,8.14E2,1.859E3,4.89E2,6.06E2,3.211E3,1.15E2,1.9E1,2.203E3,1.5E1,8.09E2,1.443E3,2.528E3,4.4E1,6.75E2,2.06E2],"tree_param":{"num_deleted":"0","num_feature":"17","num_nodes":"55","size_leaf_vector":"1"}},{"base_weights":[-2.3436646E-6,-3.4618375E0,1.7171267E0,-3.28742E0,-3.5375566E0,-2.6310848E-2,3.2880719E0,-3.379944E0,-3.1854308E0,-3.603873E0,-3.4178414E0,-6.801244E-2,7.356761E-3,2.2794487E0,4.5927234E0,-3.290827E0,-3.494027E0,-3.107305E-2,-3.3049922E0,-3.6607347E0,-3.4687204E0,-3.439027E0,-2.9002968E-2,8.61298E-3,-9.54499E-2,1.475353E-2,-2.0188932E-1,2.2068021E0,2.3499873E0,4.0854E0,6.0674973E0,-3.3318024E-2,-2.837944E-2,-2.1065455E-2,-3.5238285E-2,-3.308291E-2,-9.630046E-3,-1.9734303E-2,-3.662794E-2,-2.0382216E-2,-3.4738395E-2,-3.43983E-2,-1.0001802E-2,-3.8711166E-3,2.2197861E-4,-6.822179E-4,-1.9861078E-3,1.1146007E-3,-3.5265508E-5,-1.2474814E-3,-6.3921367E-3,2.2091767E-2,-2.8378582E-3,2.4760308E-2,2.3134585E-2,4.0663995E-2,5.0624344E-2,5.628983E-2,7.4702434E-2],"categories":[],"categories_nodes":[],"categories_segments":[],"categories_sizes":[],"default_left":[0,0,0,0,0,0,0,0,0,0,0,0,0,0,0,0,0,0,0,0,0,0,0,0,0,0,0,0,0,0,0,0,0,0,0,0,0,0,0,0,0,0,0,0,0,0,0,0,0,0,0,0,0,0,0,0,0,0,0],"id":6,"left_children":[1,3,5,7,9,11,13,15,17,19,21,23,25,27,29,31,33,-1,35,37,39,41,-1,43,45,47,49,51,53,55,57,-1,-1,-1,-1,-1,-1,-1,-1,-1,-1,-1,-1,-1,-1,-1,-1,-1,-1,-1,-1,-1,-1,-1,-1,-1,-1,-1,-1],"loss_changes":[1.3396339E5,8.7046875E1,4.125805E4,1.07109375E1,2.89375E1,1.0026415E1,1.0416734E4,4.6777344E-1,4.8828125E-3,1.2863281E1,1.0550781E1,6.7074995E0,6.1196666E0,1.772461E1,2.5594453E3,3.1254883E0,1.3251953E1,0E0,5.1757812E-2,8.457031E-1,2.705078E-1,7.03125E-2,0E0,4.535077E0,6.5844994E0,6.749866E0,4.47458E0,1.3750977E1,4.6445312E0,2.7179688E1,5.004922E2,0E0,0E0,0E0,0E0,0E0,0E0,0E0,0E0,0E0,0E0,0E0,0E0,0E0,0E0,0E0,0E0,0E0,0E0,0E0,0E0,0E0,0E0,0E0,0E0,0E0,0E0,0E0,0E0],"parents":[2147483647,0,0,1,1,2,2,3,3,4,4,5,5,6,6,7,7,8,8,9,9,10,10,11,11,12,12,13,13,14,14,15,15,16,16,18,18,19,19,20,20,21,21,23,23,24,24,25,25,26,26,27,27,28,28,29,29,30,30],"right_children":[2,4,6,8,10,12,14,16,18,20,22,24,26,28,30,32,34,-1,36,38,40,42,-1,44,46,48,50,52,54,56,58,-1,-1,-1,-1,-1,-1,-1,-1,-1,-1,-1,-1,-1,-1,-1,-1,-1,-1,-1,-1,-1,-1,-1,-1,-1,-1,-1,-1],"split_conditions":[2E0,1.3862944E0,3E0,1.3102826E-1,1.5700375E-1,8.987197E0,4E0,1E0,1.0803649E1,1E0,1.0096172E1,1.0433998E1,2.7725887E0,1.609438E0,5E0,9.169518E0,1.012503E1,-3.107305E-2,1.2043553E1,1.1133441E0,1.9802628E-2,1.4465649E0,-2.9002968E-2,9.615806E0,8.740336E0,9.169518E0,1E0,1.4252466E0,8.486734E0,1.0308952E1,6E0,-3.3318024E-2,-2.837944E-2,-2.1065455E-2,-3.5238285E-2,-3.308291E-2,-9.630046E-3,-1.9734303E-2,-3.662794E-2,-2.0382216E-2,-3.4738395E-2,-3.43983E-2,-1.0001802E-2,-3.8711166E-3,2.2197861E-4,-6.822179E-4,-1.9861078E-3,1.1146007E-3,-3.5265508E-5,-1.2474814E-3,-6.3921367E-3,2.2091767E-2,-2.8378582E-3,2.4760308E-2,2.3134585E-2,4.0663995E-2,5.0624344E-2,5.628983E-2,7.4702434E-2],"split_indices":[3,2,3,6,6,4,3,9,1,11,4,1,8,2,3,4,1,0,1,0,6,0,0,1,4,4,14,0,4,4,3,0,0,0,0,0,0,0,0,0,0,0,0,0,0,0,0,0,0,0,0,0,0,0,0,0,0,0,0],"split_type":[0,0,0,0,0,0,0,0,0,0,0,0,0,0,0,0,0,0,0,0,0,0,0,0,0,0,0,0,0,0,0,0,0,0,0,0,0,0,0,0,0,0,0,0,0,0,0,0,0,0,0,0,0,0,0,0,0,0,0],"sum_hessian":[2.2534E4,7.471E3,1.5063E4,2.275E3,5.196E3,7.14E3,7.923E3,1.176E3,1.099E3,3.325E3,1.871E3,3.189E3,3.951E3,4.47E3,3.453E3,6.77E2,4.99E2,6.81E2,4.18E2,2.322E3,1.003E3,1.792E3,7.9E1,8.41E2,2.348E3,3.817E3,1.34E2,2.218E3,2.252E3,2.572E3,8.81E2,6.15E2,6.2E1,1.2E1,4.87E2,4.17E2,1E0,4E0,2.318E3,5E0,9.98E2,1.791E3,1E0,2.7E1,8.14E2,1.859E3,4.89E2,6.06E2,3.211E3,1.15E2,1.9E1,2.216E3,2E0,4.91E2,1.761E3,2.528E3,4.4E1,6.75E2,2.06E2],"tree_param":{"num_deleted":"0","num_feature":"17","num_nodes":"59","size_leaf_vector":"1"}},{"base_weights":[-6.7902374E-6,-3.4272697E0,1.6999738E0,-3.2546303E0,-3.5022166E0,-2.6049642E-2,3.2552278E0,-3.346245E0,-3.1536436E0,-3.5647795E0,-3.37727E0,-6.7334495E-2,7.281512E-3,2.2566693E0,4.546861E0,-3.364059E0,-2.8571656E0,-3.0762779E-2,-3.2720442E0,-3.612132E0,-3.3830914E0,-3.4108346E0,-3.1129909E0,8.522292E-3,-9.449673E-2,1.4606256E-2,-1.9992703E-1,2.1847427E0,2.326509E0,4.044582E0,6.0069714E0,-3.274208E-2,-3.477639E-2,-2.9517995E-2,-1.4529528E-2,-3.275287E-2,-9.581895E-3,-3.630617E-2,-3.1779077E-2,-3.421951E-2,-2.9264528E-2,-3.4117635E-2,-9.881072E-3,-5.8633853E-3,-3.1223195E-2,-3.8337894E-3,2.1975927E-4,-5.8600167E-4,-1.7200853E-3,1.1034706E-3,-3.4912755E-5,-1.2351149E-3,-6.331408E-3,2.1915294E-2,1.1132908E-2,2.414436E-2,2.2755755E-2,4.025752E-2,5.0129354E-2,5.572776E-2,7.3959015E-2],"categories":[],"categories_nodes":[],"categories_segments":[],"categories_sizes":[],"default_left":[0,0,0,0,0,0,0,0,0,0,0,0,0,0,0,0,0,0,0,0,0,0,0,0,0,0,0,0,0,0,0,0,0,0,0,0,0,0,0,0,0,0,0,0,0,0,0,0,0,0,0,0,0,0,0,0,0,0,0,0,0],"id":7,"left_children":[1,3,5,7,9,11,13,15,17,19,21,23,25,27,29,31,33,-1,35,37,39,41,43,45,47,49,51,53,55,57,59,-1,-1,-1,-1,-1,-1,-1,-1,-1,-1,-1,-1,-1,-1,-1,-1,-1,-1,-1,-1,-1,-1,-1,-1,-1,-1,-1,-1,-1,-1],"loss_changes":[1.3130106E5,8.527344E1,4.0437957E4,1.0505859E1,2.8585938E1,9.827019E0,1.0209891E4,6.425781E-1,9.765625E-3,1.7414062E1,4.9335938E0,6.5736065E0,6.001066E0,1.7375E1,2.5088047E3,1.4550781E-1,2.0897217E0,0E0,5.859375E-3,1.028125E1,2.9052734E0,1.07421875E-1,3.095459E0,4.447867E0,6.525795E0,6.615728E0,4.3908753E0,1.3696289E1,4.5947266E0,2.6734375E1,4.9068945E2,0E0,0E0,0E0,0E0,0E0,0E0,0E0,0E0,0E0,0E0,0E0,0E0,0E0,0E0,0E0,0E0,0E0,0E0,0E0,0E0,0E0,0E0,0E0,0E0,0E0,0E0,0E0,0E0,0E0,0E0],"parents":[2147483647,0,0,1,1,2,2,3,3,4,4,5,5,6,6,7,7,8,8,9,9,10,10,11,11,12,12,13,13,14,14,15,15,16,16,18,18,19,19,20,20,21,21,22,22,23,23,24,24,25,25,26,26,27,27,28,28,29,29,30,30],"right_children":[2,4,6,8,10,12,14,16,18,20,22,24,26,28,30,32,34,-1,36,38,40,42,44,46,48,50,52,54,56,58,60,-1,-1,-1,-1,-1,-1,-1,-1,-1,-1,-1,-1,-1,-1,-1,-1,-1,-1,-1,-1,-1,-1,-1,-1,-1,-1,-1,-1,-1,-1],"split_conditions":[2E0,1.3862944E0,3E0,1.3102826E-1,1E0,8.987197E0,4E0,1E0,1.0803649E1,9.413281E0,9.574984E0,1.0433998E1,2.7725887E0,1.609438E0,5E0,1E0,8.9996195E0,-3.0762779E-2,1.2043553E1,1E0,1.0096172E1,3.4011974E0,8.61777E-2,9.615806E0,1.21411E0,9.169518E0,1E0,4.1210964E-1,8.764053E0,1.0308952E1,6E0,-3.274208E-2,-3.477639E-2,-2.9517995E-2,-1.4529528E-2,-3.275287E-2,-9.581895E-3,-3.630617E-2,-3.1779077E-2,-3.421951E-2,-2.9264528E-2,-3.4117635E-2,-9.881072E-3,-5.8633853E-3,-3.1223195E-2,-3.8337894E-3,2.1975927E-4,-5.8600167E-4,-1.7200853E-3,1.1034706E-3,-3.4912755E-5,-1.2351149E-3,-6.331408E-3,2.1915294E-2,1.1132908E-2,2.414436E-2,2.2755755E-2,4.025752E-2,5.0129354E-2,5.572776E-2,7.3959015E-2],"split_indices":[3,2,3,6,11,4,3,5,1,4,4,1,8,2,3,9,4,0,1,5,4,8,6,1,0,4,14,6,4,4,3,0,0,0,0,0,0,0,0,0,0,0,0,0,0,0,0,0,0,0,0,0,0,0,0,0,0,0,0,0,0],"split_type":[0,0,0,0,0,0,0,0,0,0,0,0,0,0,0,0,0,0,0,0,0,0,0,0,0,0,0,0,0,0,0,0,0,0,0,0,0,0,0,0,0,0,0,0,0,0,0,0,0,0,0,0,0,0,0,0,0,0,0,0,0],"sum_hessian":[2.2534E4,7.471E3,1.5063E4,2.275E3,5.196E3,7.14E3,7.923E3,1.176E3,1.099E3,3.444E3,1.752E3,3.189E3,3.951E3,4.47E3,3.453E3,1.129E3,4.7E1,6.81E2,4.18E2,2.717E3,7.27E2,1.544E3,2.08E2,8.41E2,2.348E3,3.817E3,1.34E2,2.218E3,2.252E3,2.572E3,8.81E2,6.47E2,4.82E2,4.3E1,4E0,4.17E2,1E0,2.599E3,1.18E2,6.64E2,6.3E1,1.543E3,1E0,1E0,2.07E2,2.7E1,8.14E2,1.606E3,7.42E2,6.06E2,3.211E3,1.15E2,1.9E1,2.203E3,1.5E1,8.09E2,1.443E3,2.528E3,4.4E1,6.75E2,2.06E2],"tree_param":{"num_deleted":"0","num_feature":"17","num_nodes":"61","size_leaf_vector":"1"}},{"base_weights":[-1.1486242E-5,-3.39305E0,1.6829933E0,-3.2221649E0,-3.4672353E0,-2.579073E-2,3.2227135E0,-3.3128772E0,-3.1221738E0,-3.5324612E0,-3.3494954E0,-6.666304E-2,7.207364E-3,2.2341204E0,4.5014563E0,-3.3304777E0,-2.8295116E0,-3.1233545E-2,-9.120869E-3,-3.5881424E0,-3.4001112E0,-3.3702576E0,-2.8422926E-2,-4.4277705E-2,-1.5827923E-1,1.4460798E-2,-1.9798389E-1,2.16291E0,2.3032649E0,4.0041714E0,5.947048E0,-3.241516E-2,-3.4429345E-2,-3.0424628E-2,-2.0221457E-2,-1.9285977E-2,-3.5901733E-2,-1.9928051E-2,-3.4051597E-2,-3.371045E-2,-9.795675E-3,-2.8009024E-3,-3.6082478E-4,-2.4508007E-3,-3.8328514E-4,1.0924547E-3,-3.4560006E-5,-1.4874536E-3,-8.707961E-3,2.1652622E-2,-2.96504E-3,2.4272257E-2,2.2673441E-2,3.9855104E-2,4.9639206E-2,5.5171307E-2,7.3222995E-2],"categories":[],"categories_nodes":[],"categories_segments":[],"categories_sizes":[],"default_left":[0,0,0,0,0,0,0,0,0,0,0,0,0,0,0,0,0,0,0,0,0,0,0,0,0,0,0,0,0,0,0,0,0,0,0,0,0,0,0,0,0,0,0,0,0,0,0,0,0,0,0,0,0,0,0,0,0],"id":8,"left_children":[1,3,5,7,9,11,13,15,17,19,21,23,25,27,29,31,33,-1,-1,35,37,39,-1,41,43,45,47,49,51,53,55,-1,-1,-1,-1,-1,-1,-1,-1,-1,-1,-1,-1,-1,-1,-1,-1,-1,-1,-1,-1,-1,-1,-1,-1,-1,-1],"loss_changes":[1.2869183E5,8.3546875E1,3.9634215E4,1.0302734E1,2.8078125E1,9.631607E0,1.0007117E4,5.8984375E-1,2.34375E-2,1.2308594E1,1.0136719E1,6.5352325E0,5.8847885E0,1.703125E1,2.459164E3,1.4550781E-1,2.1003113E0,0E0,0E0,9.0625E-1,3.4765625E-1,7.2265625E-2,0E0,4.9468493E0,6.5084085E0,6.48425E0,4.3427916E0,1.3480469E1,4.5283203E0,2.6300781E1,4.8108008E2,0E0,0E0,0E0,0E0,0E0,0E0,0E0,0E0,0E0,0E0,0E0,0E0,0E0,0E0,0E0,0E0,0E0,0E0,0E0,0E0,0E0,0E0,0E0,0E0,0E0,0E0],"parents":[2147483647,0,0,1,1,2,2,3,3,4,4,5,5,6,6,7,7,8,8,9,9,10,10,11,11,12,12,13,13,14,14,15,15,16,16,19,19,20,20,21,21,23,23,24,24,25,25,26,26,27,27,28,28,29,29,30,30],"right_children":[2,4,6,8,10,12,14,16,18,20,22,24,26,28,30,32,34,-1,-1,36,38,40,-1,42,44,46,48,50,52,54,56,-1,-1,-1,-1,-1,-1,-1,-1,-1,-1,-1,-1,-1,-1,-1,-1,-1,-1,-1,-1,-1,-1,-1,-1,-1,-1],"split_conditions":[2E0,1.3862944E0,3E0,1.3102826E-1,1.5700375E-1,8.987197E0,4E0,1E0,4.7623417E-1,1E0,1.0096172E1,8.740336E0,2.7725887E0,1.609438E0,5E0,1E0,1E0,-3.1233545E-2,-9.120869E-3,1.1133441E0,1.9802628E-2,1.4465649E0,-2.8422926E-2,2.9558802E-2,8.881836E0,9.169518E0,3.1354942E0,1.4252466E0,8.486734E0,1.0308952E1,6E0,-3.241516E-2,-3.4429345E-2,-3.0424628E-2,-2.0221457E-2,-1.9285977E-2,-3.5901733E-2,-1.9928051E-2,-3.4051597E-2,-3.371045E-2,-9.795675E-3,-2.8009024E-3,-3.6082478E-4,-2.4508007E-3,-3.8328514E-4,1.0924547E-3,-3.4560006E-5,-1.4874536E-3,-8.707961E-3,2.1652622E-2,-2.96504E-3,2.4272257E-2,2.2673441E-2,3.9855104E-2,4.9639206E-2,5.5171307E-2,7.3222995E-2],"split_indices":[3,2,3,6,6,4,3,5,6,11,4,4,8,2,3,9,13,0,0,0,6,0,0,6,4,4,2,0,4,4,3,0,0,0,0,0,0,0,0,0,0,0,0,0,0,0,0,0,0,0,0,0,0,0,0,0,0],"split_type":[0,0,0,0,0,0,0,0,0,0,0,0,0,0,0,0,0,0,0,0,0,0,0,0,0,0,0,0,0,0,0,0,0,0,0,0,0,0,0,0,0,0,0,0,0,0,0,0,0,0,0,0,0,0,0,0,0],"sum_hessian":[2.2534E4,7.471E3,1.5063E4,2.275E3,5.196E3,7.14E3,7.923E3,1.176E3,1.099E3,3.325E3,1.871E3,3.189E3,3.951E3,4.47E3,3.453E3,1.129E3,4.7E1,1.098E3,1E0,2.322E3,1.003E3,1.792E3,7.9E1,2.564E3,6.25E2,3.817E3,1.34E2,2.218E3,2.252E3,2.572E3,8.81E2,6.47E2,4.82E2,3.5E1,1.2E1,4E0,2.318E3,5E0,9.98E2,1.791E3,1E0,8.5E1,2.479E3,3.62E2,2.63E2,6.06E2,3.211E3,1.26E2,8E0,2.216E3,2E0,4.91E2,1.761E3,2.528E3,4.4E1,6.75E2,2.06E2],"tree_param":{"num_deleted":"0","num_feature":"17","num_nodes":"57","size_leaf_vector":"1"}},{"base_weights":[-1.4455434E-5,-3.3591645E0,1.6661811E0,-3.1900125E0,-3.4325976E0,-2.5535185E-2,3.1905222E0,-3.2798479E0,-3.0909884E0,-3.4941032E0,-3.3097682E0,-6.599853E-2,7.132732E-3,2.2117941E0,4.456505E0,-3.297232E0,-2.8022711E0,-3.0144047E-2,-3.2082653E0,-3.5386975E0,-3.3079107E0,-3.3428943E0,-3.0490515E0,8.990922E-3,-9.285043E-2,2.6740747E-2,-6.7562915E-2,2.1412897E0,2.280253E0,3.9641645E0,5.8877234E0,-3.2091506E-2,-3.408576E-2,-2.8957695E-2,-1.41903E-2,-3.2114536E-2,-9.377818E-3,-3.5566323E-2,-3.1174086E-2,-3.347979E-2,-2.8693158E-2,-3.343808E-2,-9.661407E-3,-5.66381E-3,-3.0582644E-2,-3.7933367E-3,2.2321103E-4,-5.729999E-4,-1.6961584E-3,7.546733E-5,1.3351927E-3,-9.614911E-4,2.7835881E-3,2.148004E-2,1.0825545E-2,2.3667073E-2,2.2301778E-2,3.9456714E-2,4.9153853E-2,5.462041E-2,7.2494306E-2],"categories":[],"categories_nodes":[],"categories_segments":[],"categories_sizes":[],"default_left":[0,0,0,0,0,0,0,0,0,0,0,0,0,0,0,0,0,0,0,0,0,0,0,0,0,0,0,0,0,0,0,0,0,0,0,0,0,0,0,0,0,0,0,0,0,0,0,0,0,0,0,0,0,0,0,0,0,0,0,0,0],"id":9,"left_children":[1,3,5,7,9,11,13,15,17,19,21,23,25,27,29,31,33,-1,35,37,39,41,43,45,47,49,51,53,55,57,59,-1,-1,-1,-1,-1,-1,-1,-1,-1,-1,-1,-1,-1,-1,-1,-1,-1,-1,-1,-1,-1,-1,-1,-1,-1,-1,-1,-1,-1,-1],"loss_changes":[1.26134016E5,8.186719E1,3.884641E4,1.0109375E1,2.7691406E1,9.439823E0,9.808398E3,5.3125E-1,2.0996094E-1,1.6902344E1,4.9492188E0,6.4242477E0,5.790038E0,1.6695312E1,2.4105156E3,1.4355469E-1,2.0986938E0,0E0,2.1484375E-2,9.800781E0,2.3608398E0,1.25E-1,3.0482178E0,4.367027E0,6.4008083E0,6.416004E0,8.155181E0,1.3450195E1,4.4746094E0,2.5867188E1,4.716582E2,0E0,0E0,0E0,0E0,0E0,0E0,0E0,0E0,0E0,0E0,0E0,0E0,0E0,0E0,0E0,0E0,0E0,0E0,0E0,0E0,0E0,0E0,0E0,0E0,0E0,0E0,0E0,0E0,0E0,0E0],"parents":[2147483647,0,0,1,1,2,2,3,3,4,4,5,5,6,6,7,7,8,8,9,9,10,10,11,11,12,12,13,13,14,14,15,15,16,16,18,18,19,19,20,20,21,21,22,22,23,23,24,24,25,25,26,26,27,27,28,28,29,29,30,30],"right_children":[2,4,6,8,10,12,14,16,18,20,22,24,26,28,30,32,34,-1,36,38,40,42,44,46,48,50,52,54,56,58,60,-1,-1,-1,-1,-1,-1,-1,-1,-1,-1,-1,-1,-1,-1,-1,-1,-1,-1,-1,-1,-1,-1,-1,-1,-1,-1,-1,-1,-1,-1],"split_conditions":[2E0,1.3862944E0,3E0,1.3102826E-1,1E0,8.987197E0,4E0,1E0,1.0803649E1,9.472705E0,9.574984E0,1.0433998E1,1.242925E0,1.609438E0,5E0,1E0,8.9996195E0,-3.0144047E-2,1.2043553E1,1E0,1.0096172E1,3.4011974E0,8.61777E-2,9.615806E0,1.21411E0,1.21411E0,1E0,4.1210964E-1,8.764053E0,1.0308952E1,6E0,-3.2091506E-2,-3.408576E-2,-2.8957695E-2,-1.41903E-2,-3.2114536E-2,-9.377818E-3,-3.5566323E-2,-3.1174086E-2,-3.347979E-2,-2.8693158E-2,-3.343808E-2,-9.661407E-3,-5.66381E-3,-3.0582644E-2,-3.7933367E-3,2.2321103E-4,-5.729999E-4,-1.6961584E-3,7.546733E-5,1.3351927E-3,-9.614911E-4,2.7835881E-3,2.148004E-2,1.0825545E-2,2.3667073E-2,2.2301778E-2,3.9456714E-2,4.9153853E-2,5.462041E-2,7.2494306E-2],"split_indices":[3,2,3,6,11,4,3,5,1,4,4,1,0,2,3,9,4,0,1,5,4,8,6,1,0,0,10,6,4,4,3,0,0,0,0,0,0,0,0,0,0,0,0,0,0,0,0,0,0,0,0,0,0,0,0,0,0,0,0,0,0],"split_type":[0,0,0,0,0,0,0,0,0,0,0,0,0,0,0,0,0,0,0,0,0,0,0,0,0,0,0,0,0,0,0,0,0,0,0,0,0,0,0,0,0,0,0,0,0,0,0,0,0,0,0,0,0,0,0,0,0,0,0,0,0],"sum_hessian":[2.2534E4,7.471E3,1.5063E4,2.275E3,5.196E3,7.14E3,7.923E3,1.176E3,1.099E3,3.444E3,1.752E3,3.189E3,3.951E3,4.47E3,3.453E3,1.129E3,4.7E1,6.81E2,4.18E2,2.764E3,6.8E2,1.544E3,2.08E2,8.41E2,2.348E3,3.13E3,8.21E2,2.218E3,2.252E3,2.572E3,8.81E2,6.47E2,4.82E2,4.3E1,4E0,4.17E2,1E0,2.644E3,1.2E2,6.17E2,6.3E1,1.543E3,1E0,1E0,2.07E2,2.7E1,8.14E2,1.606E3,7.42E2,2.654E3,4.76E2,7.59E2,6.2E1,2.203E3,1.5E1,8.09E2,1.443E3,2.528E3,4.4E1,6.75E2,2.06E2],"tree_param":{"num_deleted":"0","num_feature":"17","num_nodes":"61","size_leaf_vector":"1"}},{"base_weights":[-1.858097E-5,-3.3256252E0,1.6495388E0,-3.158192E0,-3.3983119E0,-2.528008E-2,3.1586545E0,-3.2471423E0,-3.0601437E0,-3.462472E0,-3.2825022E0,-6.5340176E-2,7.062275E-3,2.189694E0,4.412002E0,-3.2643182E0,-2.7751477E0,-2.9843053E-2,-3.1762812E-2,-3.5169978E0,-3.3328645E0,-3.3028493E0,-2.7854411E-2,-4.3181103E-2,-1.5603137E-1,9.418035E-2,-9.643833E-3,2.1198916E0,2.2574708E0,3.9245574E0,5.82899E0,-3.177109E-2,-3.3745605E-2,-2.9859604E-2,-1.9778855E-2,-1.8847156E-2,-3.519001E-2,-1.9483337E-2,-3.3378437E-2,-3.3036217E-2,-9.593782E-3,-2.7636345E-3,-3.5077526E-4,-2.420024E-3,-3.7230185E-4,2.3227467E-3,2.1098988E-4,-4.416795E-4,4.912249E-4,2.3789776E-2,2.0881511E-2,2.379384E-2,2.222148E-2,3.9062303E-2,4.867323E-2,5.4075018E-2,7.177286E-2],"categories":[],"categories_nodes":[],"categories_segments":[],"categories_sizes":[],"default_left":[0,0,0,0,0,0,0,0,0,0,0,0,0,0,0,0,0,0,0,0,0,0,0,0,0,0,0,0,0,0,0,0,0,0,0,0,0,0,0,0,0,0,0,0,0,0,0,0,0,0,0,0,0,0,0,0,0],"id":10,"left_children":[1,3,5,7,9,11,13,15,17,19,21,23,25,27,29,31,33,-1,-1,35,37,39,-1,41,43,45,47,49,51,53,55,-1,-1,-1,-1,-1,-1,-1,-1,-1,-1,-1,-1,-1,-1,-1,-1,-1,-1,-1,-1,-1,-1,-1,-1,-1,-1],"loss_changes":[1.2362751E5,8.019531E1,3.8074273E4,9.9140625E0,2.725E1,9.252612E0,9.613594E3,4.8242188E-1,2.0898438E-1,1.1785156E1,9.734375E0,6.4039927E0,5.7526655E0,1.6365234E1,2.3628125E3,1.4257812E-1,2.161621E0,0E0,0E0,9.628906E-1,4.189453E-1,7.6171875E-2,0E0,4.8371563E0,6.384615E0,6.413688E0,6.731884E0,1.3280273E1,4.415039E0,2.5441406E1,4.6242188E2,0E0,0E0,0E0,0E0,0E0,0E0,0E0,0E0,0E0,0E0,0E0,0E0,0E0,0E0,0E0,0E0,0E0,0E0,0E0,0E0,0E0,0E0,0E0,0E0,0E0,0E0],"parents":[2147483647,0,0,1,1,2,2,3,3,4,4,5,5,6,6,7,7,8,8,9,9,10,10,11,11,12,12,13,13,14,14,15,15,16,16,19,19,20,20,21,21,23,23,24,24,25,25,26,26,27,27,28,28,29,29,30,30],"right_children":[2,4,6,8,10,12,14,16,18,20,22,24,26,28,30,32,34,-1,-1,36,38,40,-1,42,44,46,48,50,52,54,56,-1,-1,-1,-1,-1,-1,-1,-1,-1,-1,-1,-1,-1,-1,-1,-1,-1,-1,-1,-1,-1,-1,-1,-1,-1,-1],"split_conditions":[2E0,1.3862944E0,3E0,1.3102826E-1,1.5700375E-1,8.987197E0,4E0,1E0,1.0803649E1,1E0,1.0096172E1,8.740336E0,9.169518E0,1.609438E0,5E0,1E0,1E0,-2.9843053E-2,-3.1762812E-2,1.1133441E0,1.9802628E-2,1.4465649E0,-2.7854411E-2,2.9558802E-2,8.881836E0,1.3862944E0,9.632335E0,7.9373746E0,8.486734E0,1.0308952E1,6E0,-3.177109E-2,-3.3745605E-2,-2.9859604E-2,-1.9778855E-2,-1.8847156E-2,-3.519001E-2,-1.9483337E-2,-3.3378437E-2,-3.3036217E-2,-9.593782E-3,-2.7636345E-3,-3.5077526E-4,-2.420024E-3,-3.7230185E-4,2.3227467E-3,2.1098988E-4,-4.416795E-4,4.912249E-4,2.3789776E-2,2.0881511E-2,2.379384E-2,2.222148E-2,3.9062303E-2,4.867323E-2,5.4075018E-2,7.177286E-2],"split_indices":[3,2,3,6,6,4,3,5,1,11,4,4,4,2,3,9,13,0,0,0,6,0,0,6,4,2,4,4,4,4,3,0,0,0,0,0,0,0,0,0,0,0,0,0,0,0,0,0,0,0,0,0,0,0,0,0,0],"split_type":[0,0,0,0,0,0,0,0,0,0,0,0,0,0,0,0,0,0,0,0,0,0,0,0,0,0,0,0,0,0,0,0,0,0,0,0,0,0,0,0,0,0,0,0,0,0,0,0,0,0,0,0,0,0,0,0,0],"sum_hessian":[2.2534E4,7.471E3,1.5063E4,2.275E3,5.196E3,7.14E3,7.923E3,1.176E3,1.099E3,3.325E3,1.871E3,3.189E3,3.951E3,4.47E3,3.453E3,1.129E3,4.7E1,6.81E2,4.18E2,2.322E3,1.003E3,1.792E3,7.9E1,2.564E3,6.25E2,6.35E2,3.316E3,2.218E3,2.252E3,2.572E3,8.81E2,6.47E2,4.82E2,3.5E1,1.2E1,4E0,2.318E3,5E0,9.98E2,1.791E3,1E0,8.5E1,2.479E3,3.62E2,2.63E2,2.19E2,4.16E2,2.089E3,1.227E3,2.34E2,1.984E3,4.91E2,1.761E3,2.528E3,4.4E1,6.75E2,2.06E2],"tree_param":{"num_deleted":"0","num_feature":"17","num_nodes":"57","size_leaf_vector":"1"}},{"base_weights":[-2.0816466E-5,-3.2924163E0,1.6330633E0,-3.1266875E0,-3.364363E0,-2.5027698E-2,3.1271062E0,-3.214769E0,-3.029598E0,-3.424831E0,-3.243612E0,-6.4688474E-2,6.992265E-3,2.167817E0,4.367944E0,-3.231733E0,-2.7484303E0,-2.9545056E-2,-3.144594E0,-3.4705927E0,-3.2492733E0,-3.276306E0,-2.986407E0,9.442957E-3,-9.123337E-2,1.4157157E-2,-1.956933E-1,2.098713E0,2.2349164E0,3.885346E0,5.770843E0,-3.1453874E-2,-3.3408847E-2,-2.8408095E-2,-1.3858059E-2,-3.1477284E-2,-9.1721155E-3,-3.488629E-2,-3.0473629E-2,-3.2863446E-2,-2.8133085E-2,-3.277204E-2,-9.446206E-3,-5.468597E-3,-2.9955065E-2,-3.7533625E-3,2.265078E-4,-5.6025543E-4,-1.6725996E-3,1.0714709E-3,-3.4203786E-5,-1.2002848E-3,-6.2476457E-3,2.1010429E-2,-3.227682E-3,2.3199217E-2,2.1856854E-2,3.8671833E-2,4.819731E-2,5.3535063E-2,7.10586E-2],"categories":[],"categories_nodes":[],"categories_segments":[],"categories_sizes":[],"default_left":[0,0,0,0,0,0,0,0,0,0,0,0,0,0,0,0,0,0,0,0,0,0,0,0,0,0,0,0,0,0,0,0,0,0,0,0,0,0,0,0,0,0,0,0,0,0,0,0,0,0,0,0,0,0,0,0,0,0,0,0,0],"id":11,"left_children":[1,3,5,7,9,11,13,15,17,19,21,23,25,27,29,31,33,-1,35,37,39,41,43,45,47,49,51,53,55,57,59,-1,-1,-1,-1,-1,-1,-1,-1,-1,-1,-1,-1,-1,-1,-1,-1,-1,-1,-1,-1,-1,-1,-1,-1,-1,-1,-1,-1,-1,-1],"loss_changes":[1.2117064E5,7.857031E1,3.7317508E4,9.722656E0,2.6835938E1,9.069069E0,9.422648E3,4.296875E-1,2.0898438E-1,1.6398438E1,4.955078E0,6.278182E0,5.7419453E0,1.6041016E1,2.3160547E3,1.40625E-1,2.1053467E0,0E0,3.8085938E-2,1.0115234E1,2.5195312E0,1.4257812E-1,3.0013428E0,4.2876263E0,6.278269E0,6.2410173E0,4.3078656E0,1.3198242E1,4.3583984E0,2.5027344E1,4.5336523E2,0E0,0E0,0E0,0E0,0E0,0E0,0E0,0E0,0E0,0E0,0E0,0E0,0E0,0E0,0E0,0E0,0E0,0E0,0E0,0E0,0E0,0E0,0E0,0E0,0E0,0E0,0E0,0E0,0E0,0E0],"parents":[2147483647,0,0,1,1,2,2,3,3,4,4,5,5,6,6,7,7,8,8,9,9,10,10,11,11,12,12,13,13,14,14,15,15,16,16,18,18,19,19,20,20,21,21,22,22,23,23,24,24,25,25,26,26,27,27,28,28,29,29,30,30],"right_children":[2,4,6,8,10,12,14,16,18,20,22,24,26,28,30,32,34,-1,36,38,40,42,44,46,48,50,52,54,56,58,60,-1,-1,-1,-1,-1,-1,-1,-1,-1,-1,-1,-1,-1,-1,-1,-1,-1,-1,-1,-1,-1,-1,-1,-1,-1,-1,-1,-1,-1,-1],"split_conditions":[2E0,1.3862944E0,3E0,1.3102826E-1,1E0,8.987197E0,4E0,1E0,1.0803649E1,9.413281E0,9.574984E0,1.0433998E1,2.7725887E0,1.609438E0,5E0,1E0,8.9996195E0,-2.9545056E-2,1.2043553E1,1E0,1.0096172E1,3.4011974E0,8.61777E-2,9.615806E0,1.21411E0,9.169518E0,1E0,1.4252466E0,8.764053E0,1.0308952E1,6E0,-3.1453874E-2,-3.3408847E-2,-2.8408095E-2,-1.3858059E-2,-3.1477284E-2,-9.1721155E-3,-3.488629E-2,-3.0473629E-2,-3.2863446E-2,-2.8133085E-2,-3.277204E-2,-9.446206E-3,-5.468597E-3,-2.9955065E-2,-3.7533625E-3,2.265078E-4,-5.6025543E-4,-1.6725996E-3,1.0714709E-3,-3.4203786E-5,-1.2002848E-3,-6.2476457E-3,2.1010429E-2,-3.227682E-3,2.3199217E-2,2.1856854E-2,3.8671833E-2,4.819731E-2,5.3535063E-2,7.10586E-2],"split_indices":[3,2,3,6,11,4,3,5,1,4,4,1,8,2,3,9,4,0,1,5,4,8,6,1,0,4,14,0,4,4,3,0,0,0,0,0,0,0,0,0,0,0,0,0,0,0,0,0,0,0,0,0,0,0,0,0,0,0,0,0,0],"split_type":[0,0,0,0,0,0,0,0,0,0,0,0,0,0,0,0,0,0,0,0,0,0,0,0,0,0,0,0,0,0,0,0,0,0,0,0,0,0,0,0,0,0,0,0,0,0,0,0,0,0,0,0,0,0,0,0,0,0,0,0,0],"sum_hessian":[2.2534E4,7.471E3,1.5063E4,2.275E3,5.196E3,7.14E3,7.923E3,1.176E3,1.099E3,3.444E3,1.752E3,3.189E3,3.951E3,4.47E3,3.453E3,1.129E3,4.7E1,6.81E2,4.18E2,2.717E3,7.27E2,1.544E3,2.08E2,8.41E2,2.348E3,3.817E3,1.34E2,2.218E3,2.252E3,2.572E3,8.81E2,6.47E2,4.82E2,4.3E1,4E0,4.17E2,1E0,2.599E3,1.18E2,6.64E2,6.3E1,1.543E3,1E0,1E0,2.07E2,2.7E1,8.14E2,1.606E3,7.42E2,6.06E2,3.211E3,1.15E2,1.9E1,2.216E3,2E0,8.09E2,1.443E3,2.528E3,4.4E1,6.75E2,2.06E2],"tree_param":{"num_deleted":"0","num_feature":"17","num_nodes":"61","size_leaf_vector":"1"}},{"base_weights":[-2.590926E-5,-3.2595432E0,1.61675E0,-3.0954986E0,-3.3307586E0,-2.477924E-2,3.0958698E0,-3.182712E0,-2.999366E0,-3.3938634E0,-3.21686E0,-6.40437E-2,6.920765E-3,2.146153E0,4.324326E0,-3.098887E0,-3.2900136E0,-2.9250043E-2,-3.1132452E-2,-3.4472532E0,-3.2669528E0,-3.236801E0,-2.729721E-2,-4.2108476E-2,-1.5381975E-1,2.6264604E-2,-6.676838E-2,2.0777338E0,2.2125869E0,3.8465264E0,5.7132754E0,-3.139238E-2,-2.6551537E-2,-1.9315548E-2,-3.31946E-2,-1.8417286E-2,-3.4492284E-2,-3.306158E-2,-3.0013846E-2,-3.2375585E-2,-9.396038E-3,-2.7269032E-3,-3.409551E-4,-2.389686E-3,-3.6157455E-4,7.259872E-5,1.319906E-3,-9.507992E-4,2.7582746E-3,2.0843744E-2,1.0331321E-2,2.3324864E-2,2.1778518E-2,3.828527E-2,4.7726043E-2,5.3000502E-2,7.035145E-2],"categories":[],"categories_nodes":[],"categories_segments":[],"categories_sizes":[],"default_left":[0,0,0,0,0,0,0,0,0,0,0,0,0,0,0,0,0,0,0,0,0,0,0,0,0,0,0,0,0,0,0,0,0,0,0,0,0,0,0,0,0,0,0,0,0,0,0,0,0,0,0,0,0,0,0,0,0],"id":12,"left_children":[1,3,5,7,9,11,13,15,17,19,21,23,25,27,29,31,33,-1,-1,35,37,39,-1,41,43,45,47,49,51,53,55,-1,-1,-1,-1,-1,-1,-1,-1,-1,-1,-1,-1,-1,-1,-1,-1,-1,-1,-1,-1,-1,-1,-1,-1,-1,-1],"loss_changes":[1.1876267E5,7.6984375E1,3.6575734E4,9.535156E0,2.64375E1,8.88873E0,9.235539E3,3.9160156E-1,2.0898438E-1,1.12734375E1,9.347656E0,6.2754555E0,5.6350565E0,1.5724609E1,2.2702383E3,3.8041992E0,1.3588867E1,0E0,0E0,1.0136719E0,5.3027344E-1,7.8125E-2,0E0,4.729909E0,6.263135E0,6.290141E0,7.9991455E0,1.3238281E1,4.3046875E0,2.4617188E1,4.4448828E2,0E0,0E0,0E0,0E0,0E0,0E0,0E0,0E0,0E0,0E0,0E0,0E0,0E0,0E0,0E0,0E0,0E0,0E0,0E0,0E0,0E0,0E0,0E0,0E0,0E0,0E0],"parents":[2147483647,0,0,1,1,2,2,3,3,4,4,5,5,6,6,7,7,8,8,9,9,10,10,11,11,12,12,13,13,14,14,15,15,16,16,19,19,20,20,21,21,23,23,24,24,25,25,26,26,27,27,28,28,29,29,30,30],"right_children":[2,4,6,8,10,12,14,16,18,20,22,24,26,28,30,32,34,-1,-1,36,38,40,-1,42,44,46,48,50,52,54,56,-1,-1,-1,-1,-1,-1,-1,-1,-1,-1,-1,-1,-1,-1,-1,-1,-1,-1,-1,-1,-1,-1,-1,-1,-1,-1],"split_conditions":[2E0,1.3862944E0,3E0,1.3102826E-1,1.5700375E-1,8.987197E0,4E0,1E0,1.0803649E1,1E0,1.0096172E1,8.740336E0,1.242925E0,1.609438E0,5E0,9.169518E0,1.012503E1,-2.9250043E-2,-3.1132452E-2,1.1133441E0,1.14295435E1,1.4465649E0,-2.729721E-2,2.9558802E-2,8.881836E0,1.21411E0,1E0,4.1210964E-1,8.486734E0,1.0308952E1,6E0,-3.139238E-2,-2.6551537E-2,-1.9315548E-2,-3.31946E-2,-1.8417286E-2,-3.4492284E-2,-3.306158E-2,-3.0013846E-2,-3.2375585E-2,-9.396038E-3,-2.7269032E-3,-3.409551E-4,-2.389686E-3,-3.6157455E-4,7.259872E-5,1.319906E-3,-9.507992E-4,2.7582746E-3,2.0843744E-2,1.0331321E-2,2.3324864E-2,2.1778518E-2,3.828527E-2,4.7726043E-2,5.3000502E-2,7.035145E-2],"split_indices":[3,2,3,6,6,4,3,9,1,11,4,4,0,2,3,4,1,0,0,0,1,0,0,6,4,0,10,6,4,4,3,0,0,0,0,0,0,0,0,0,0,0,0,0,0,0,0,0,0,0,0,0,0,0,0,0,0],"split_type":[0,0,0,0,0,0,0,0,0,0,0,0,0,0,0,0,0,0,0,0,0,0,0,0,0,0,0,0,0,0,0,0,0,0,0,0,0,0,0,0,0,0,0,0,0,0,0,0,0,0,0,0,0,0,0,0,0],"sum_hessian":[2.2534E4,7.471E3,1.5063E4,2.275E3,5.196E3,7.14E3,7.923E3,1.176E3,1.099E3,3.325E3,1.871E3,3.189E3,3.951E3,4.47E3,3.453E3,6.77E2,4.99E2,6.81E2,4.18E2,2.322E3,1.003E3,1.792E3,7.9E1,2.564E3,6.25E2,3.13E3,8.21E2,2.218E3,2.252E3,2.572E3,8.81E2,6.15E2,6.2E1,1.2E1,4.87E2,4E0,2.318E3,8.64E2,1.39E2,1.791E3,1E0,8.5E1,2.479E3,3.62E2,2.63E2,2.654E3,4.76E2,7.59E2,6.2E1,2.203E3,1.5E1,4.91E2,1.761E3,2.528E3,4.4E1,6.75E2,2.06E2],"tree_param":{"num_deleted":"0","num_feature":"17","num_nodes":"57","size_leaf_vector":"1"}},{"base_weights":[-2.8745144E-5,-3.2269952E0,1.6006016E0,-3.0646186E0,-3.2974865E0,-2.4531601E-2,3.0649471E0,-3.150979E0,-2.969427E0,-3.3569334E0,-3.1787803E0,-6.3404724E-2,6.852457E-3,2.1247087E0,4.281143E0,-3.1677277E0,-2.6910417E0,-2.895797E0,-3.082187E0,-3.4000251E0,-3.1770427E0,-3.2110138E0,-2.9252899E0,-4.1688155E-2,-1.5228589E-1,1.3925416E-2,-1.9323207E-1,2.2067866E0,2.069953E0,3.8080947E0,5.6562824E0,-3.0830791E-2,-3.274735E-2,-2.899857E-2,-1.9057807E-2,-2.8975584E-2,-8.481354E-3,-3.0852685E-2,-8.970589E-3,-3.4175217E-2,-2.9894544E-2,-3.2152556E-2,-2.7584068E-2,-1.8787596E-2,-3.214119E-2,-5.2911853E-3,-2.934266E-2,-2.6999547E-3,-3.3754233E-4,-2.3658527E-3,-3.5797383E-4,1.0600275E-3,-3.4795863E-5,-1.4435668E-3,-8.614478E-3,2.209145E-2,6.109338E-3,1.8563043E-2,2.103643E-2,3.790257E-2,4.725939E-2,5.247128E-2,6.9651335E-2],"categories":[],"categories_nodes":[],"categories_segments":[],"categories_sizes":[],"default_left":[0,0,0,0,0,0,0,0,0,0,0,0,0,0,0,0,0,0,0,0,0,0,0,0,0,0,0,0,0,0,0,0,0,0,0,0,0,0,0,0,0,0,0,0,0,0,0,0,0,0,0,0,0,0,0,0,0,0,0,0,0,0,0],"id":13,"left_children":[1,3,5,7,9,11,13,15,17,19,21,23,25,27,29,31,33,35,37,39,41,43,45,47,49,51,53,55,57,59,61,-1,-1,-1,-1,-1,-1,-1,-1,-1,-1,-1,-1,-1,-1,-1,-1,-1,-1,-1,-1,-1,-1,-1,-1,-1,-1,-1,-1,-1,-1,-1,-1],"loss_changes":[1.164025E5,7.5421875E1,3.584873E4,9.3515625E0,2.6003906E1,8.712429E0,9.052117E3,5.419922E-1,2.0800781E-1,1.5902344E1,4.9296875E0,6.1509686E0,5.5955205E0,1.5527344E1,2.2253125E3,1.3964844E-1,2.3442688E0,1.953125E-3,5.3710938E-2,9.644531E0,2.0253906E0,3.5351562E-1,2.942627E0,4.6370554E0,6.138794E0,6.1191196E0,4.28465E0,5.326172E0,1.5515625E1,2.4210938E1,4.357832E2,0E0,0E0,0E0,0E0,0E0,0E0,0E0,0E0,0E0,0E0,0E0,0E0,0E0,0E0,0E0,0E0,0E0,0E0,0E0,0E0,0E0,0E0,0E0,0E0,0E0,0E0,0E0,0E0,0E0,0E0,0E0,0E0],"parents":[2147483647,0,0,1,1,2,2,3,3,4,4,5,5,6,6,7,7,8,8,9,9,10,10,11,11,12,12,13,13,14,14,15,15,16,16,17,17,18,18,19,19,20,20,21,21,22,22,23,23,24,24,25,25,26,26,27,27,28,28,29,29,30,30],"right_children":[2,4,6,8,10,12,14,16,18,20,22,24,26,28,30,32,34,36,38,40,42,44,46,48,50,52,54,56,58,60,62,-1,-1,-1,-1,-1,-1,-1,-1,-1,-1,-1,-1,-1,-1,-1,-1,-1,-1,-1,-1,-1,-1,-1,-1,-1,-1,-1,-1,-1,-1,-1,-1],"split_conditions":[2E0,1.3862944E0,3E0,1.3102826E-1,1E0,8.987197E0,4E0,1E0,1.0803649E1,9.472705E0,9.574984E0,8.740336E0,2.7725887E0,8.764053E0,5E0,1E0,1E0,4.7623417E-1,1.2043553E1,1E0,1.0096172E1,1.9802628E-2,8.61777E-2,2.9558802E-2,8.881836E0,9.169518E0,3.1354942E0,1.4252466E0,8.945724E0,1.0308952E1,6E0,-3.0830791E-2,-3.274735E-2,-2.899857E-2,-1.9057807E-2,-2.8975584E-2,-8.481354E-3,-3.0852685E-2,-8.970589E-3,-3.4175217E-2,-2.9894544E-2,-3.2152556E-2,-2.7584068E-2,-1.8787596E-2,-3.214119E-2,-5.2911853E-3,-2.934266E-2,-2.6999547E-3,-3.3754233E-4,-2.3658527E-3,-3.5797383E-4,1.0600275E-3,-3.4795863E-5,-1.4435668E-3,-8.614478E-3,2.209145E-2,6.109338E-3,1.8563043E-2,2.103643E-2,3.790257E-2,4.725939E-2,5.247128E-2,6.9651335E-2],"split_indices":[3,2,3,6,11,4,3,5,1,4,4,4,8,4,3,9,13,6,1,5,4,6,6,6,4,4,2,0,4,4,3,0,0,0,0,0,0,0,0,0,0,0,0,0,0,0,0,0,0,0,0,0,0,0,0,0,0,0,0,0,0,0,0],"split_type":[0,0,0,0,0,0,0,0,0,0,0,0,0,0,0,0,0,0,0,0,0,0,0,0,0,0,0,0,0,0,0,0,0,0,0,0,0,0,0,0,0,0,0,0,0,0,0,0,0,0,0,0,0,0,0,0,0,0,0,0,0,0,0],"sum_hessian":[2.2534E4,7.471E3,1.5063E4,2.275E3,5.196E3,7.14E3,7.923E3,1.176E3,1.099E3,3.444E3,1.752E3,3.189E3,3.951E3,4.47E3,3.453E3,1.129E3,4.7E1,6.81E2,4.18E2,2.764E3,6.8E2,1.544E3,2.08E2,2.564E3,6.25E2,3.817E3,1.34E2,1.773E3,2.697E3,2.572E3,8.81E2,6.47E2,4.82E2,3.5E1,1.2E1,6.8E2,1E0,4.17E2,1E0,2.644E3,1.2E2,6.17E2,6.3E1,5E0,1.539E3,1E0,2.07E2,8.5E1,2.479E3,3.62E2,2.63E2,6.06E2,3.211E3,1.26E2,8E0,1.77E3,3E0,3.75E2,2.322E3,2.528E3,4.4E1,6.75E2,2.06E2],"tree_param":{"num_deleted":"0","num_feature":"17","num_nodes":"63","size_leaf_vector":"1"}},{"base_weights":[-3.478662E-5,-3.194779E0,1.5846126E0,-3.0340557E0,-3.264552E0,-2.4288582E-2,3.0343323E0,-3.1854093E0,-2.9795678E0,-3.3266318E0,-3.152511E0,-6.2772445E-2,6.7812093E-3,2.1034768E0,4.238392E0,-3.0773578E0,-3.4699354E-2,-2.898684E0,-3.1063147E0,-3.3789E0,-3.202383E0,-3.1720533E0,-2.6751084E-2,1.0407336E-2,-8.897705E-2,1.3785968E-2,-1.9137397E-1,2.0357149E0,2.1692824E0,3.7700465E0,5.5998583E0,-3.136878E-2,-2.519255E-2,-2.8998427E-2,-8.4389495E-3,-2.7949916E-2,-3.159746E-2,-1.7996548E-2,-3.3808477E-2,-3.2410614E-2,-2.9405314E-2,-3.1727966E-2,-9.202346E-3,-3.7106045E-3,2.3500207E-4,-5.4096483E-4,-1.6429883E-3,1.0494401E-3,-3.4452645E-5,-1.1647902E-3,-6.16196E-3,2.2916159E-2,2.0043937E-2,2.2871941E-2,2.1351269E-2,3.7523694E-2,4.67973E-2,5.1947344E-2,6.895818E-2],"categories":[],"categories_nodes":[],"categories_segments":[],"categories_sizes":[],"default_left":[0,0,0,0,0,0,0,0,0,0,0,0,0,0,0,0,0,0,0,0,0,0,0,0,0,0,0,0,0,0,0,0,0,0,0,0,0,0,0,0,0,0,0,0,0,0,0,0,0,0,0,0,0,0,0,0,0,0,0],"id":14,"left_children":[1,3,5,7,9,11,13,15,17,19,21,23,25,27,29,31,-1,33,35,37,39,41,-1,43,45,47,49,51,53,55,57,-1,-1,-1,-1,-1,-1,-1,-1,-1,-1,-1,-1,-1,-1,-1,-1,-1,-1,-1,-1,-1,-1,-1,-1,-1,-1,-1,-1],"loss_changes":[1.1408947E5,7.388281E1,3.5136184E4,9.277344E0,2.5660156E1,8.538817E0,8.872352E3,7.398926E0,8.311523E0,1.078125E1,8.978516E0,6.1182194E0,5.48813E0,1.5521484E1,2.1812852E3,6.5478516E0,0E0,4.3945312E-2,1.8808594E0,1.0625E0,6.376953E-1,8.0078125E-2,0E0,4.2140965E0,6.1625595E0,5.997544E0,4.223524E0,1.3192383E1,4.1904297E0,2.3816406E1,4.272461E2,0E0,0E0,0E0,0E0,0E0,0E0,0E0,0E0,0E0,0E0,0E0,0E0,0E0,0E0,0E0,0E0,0E0,0E0,0E0,0E0,0E0,0E0,0E0,0E0,0E0,0E0,0E0,0E0],"parents":[2147483647,0,0,1,1,2,2,3,3,4,4,5,5,6,6,7,7,8,8,9,9,10,10,11,11,12,12,13,13,14,14,15,15,17,17,18,18,19,19,20,20,21,21,23,23,24,24,25,25,26,26,27,27,28,28,29,29,30,30],"right_children":[2,4,6,8,10,12,14,16,18,20,22,24,26,28,30,32,-1,34,36,38,40,42,-1,44,46,48,50,52,54,56,58,-1,-1,-1,-1,-1,-1,-1,-1,-1,-1,-1,-1,-1,-1,-1,-1,-1,-1,-1,-1,-1,-1,-1,-1,-1,-1,-1,-1],"split_conditions":[2E0,1.3862944E0,3E0,8.422882E0,1.5700375E-1,8.987197E0,4E0,8.242756E0,1E0,1E0,1.0096172E1,1.0433998E1,2.7725887E0,1.609438E0,5E0,1E0,-3.4699354E-2,4.7623417E-1,1.0691945E1,1.1133441E0,1.14295435E1,1.4465649E0,-2.6751084E-2,9.615806E0,1.21411E0,9.169518E0,1E0,7.9373746E0,8.486734E0,1.0308952E1,6E0,-3.136878E-2,-2.519255E-2,-2.8998427E-2,-8.4389495E-3,-2.7949916E-2,-3.159746E-2,-1.7996548E-2,-3.3808477E-2,-3.2410614E-2,-2.9405314E-2,-3.1727966E-2,-9.202346E-3,-3.7106045E-3,2.3500207E-4,-5.4096483E-4,-1.6429883E-3,1.0494401E-3,-3.4452645E-5,-1.1647902E-3,-6.16196E-3,2.2916159E-2,2.0043937E-2,2.2871941E-2,2.1351269E-2,3.7523694E-2,4.67973E-2,5.1947344E-2,6.895818E-2],"split_indices":[3,2,3,4,6,4,3,4,9,11,4,1,8,2,3,5,0,6,1,0,1,0,0,1,0,4,14,4,4,4,3,0,0,0,0,0,0,0,0,0,0,0,0,0,0,0,0,0,0,0,0,0,0,0,0,0,0,0,0],"split_type":[0,0,0,0,0,0,0,0,0,0,0,0,0,0,0,0,0,0,0,0,0,0,0,0,0,0,0,0,0,0,0,0,0,0,0,0,0,0,0,0,0,0,0,0,0,0,0,0,0,0,0,0,0,0,0,0,0,0,0],"sum_hessian":[2.2534E4,7.471E3,1.5063E4,2.275E3,5.196E3,7.14E3,7.923E3,5.87E2,1.688E3,3.325E3,1.871E3,3.189E3,3.951E3,4.47E3,3.453E3,4.34E2,1.53E2,1.045E3,6.43E2,2.322E3,1.003E3,1.792E3,7.9E1,8.41E2,2.348E3,3.817E3,1.34E2,2.218E3,2.252E3,2.572E3,8.81E2,3.88E2,4.6E1,1.044E3,1E0,1.02E2,5.41E2,4E0,2.318E3,8.64E2,1.39E2,1.791E3,1E0,2.7E1,8.14E2,1.606E3,7.42E2,6.06E2,3.211E3,1.15E2,1.9E1,2.34E2,1.984E3,4.91E2,1.761E3,2.528E3,4.4E1,6.75E2,2.06E2],"tree_param":{"num_deleted":"0","num_feature":"17","num_nodes":"59","size_leaf_vector":"1"}},{"base_weights":[-3.834647E-5,-3.1628807E0,1.5687852E0,-3.0037978E0,-3.2319415E0,-2.4047386E-2,3.004026E0,-3.1537101E0,-2.9498298E0,-3.290384E0,-3.1152463E0,-6.2146466E-2,6.7117517E-3,2.0824616E0,4.1960673E0,-3.0467138E0,-3.4354612E-2,-2.869733E0,-3.075344E0,-3.3346102E0,-3.120745E0,-3.1470268E0,-2.865409E0,-4.064926E-2,-1.501308E-1,2.5723306E-2,-6.5711476E-2,2.0153768E0,2.1476095E0,3.7323792E0,5.5439963E0,-3.1055896E-2,-2.4945986E-2,-2.8708722E-2,-8.396754E-3,-2.7673127E-2,-3.1282075E-2,-3.3522096E-2,-2.9220676E-2,-3.1561032E-2,-2.7045893E-2,-1.8375972E-2,-3.150085E-2,-5.1177023E-3,-2.8742641E-2,-1.5885437E-4,-1.1210258E-3,-2.3362439E-3,-3.4758387E-4,6.9032816E-5,1.3042236E-3,-9.3765854E-4,2.7376534E-3,2.0219428E-2,9.849337E-3,2.7776582E-2,2.140437E-2,3.714861E-2,4.6339724E-2,5.1428635E-2,6.827193E-2],"categories":[],"categories_nodes":[],"categories_segments":[],"categories_sizes":[],"default_left":[0,0,0,0,0,0,0,0,0,0,0,0,0,0,0,0,0,0,0,0,0,0,0,0,0,0,0,0,0,0,0,0,0,0,0,0,0,0,0,0,0,0,0,0,0,0,0,0,0,0,0,0,0,0,0,0,0,0,0,0,0],"id":15,"left_children":[1,3,5,7,9,11,13,15,17,19,21,23,25,27,29,31,-1,33,35,37,39,41,43,45,47,49,51,53,55,57,59,-1,-1,-1,-1,-1,-1,-1,-1,-1,-1,-1,-1,-1,-1,-1,-1,-1,-1,-1,-1,-1,-1,-1,-1,-1,-1,-1,-1,-1,-1],"loss_changes":[1.1182231E5,7.2375E1,3.443786E4,9.111328E0,2.5191406E1,8.368917E0,8.696117E3,7.258789E0,8.155273E0,1.5441406E1,4.9003906E0,6.027519E0,5.4431124E0,1.52109375E1,2.138121E3,6.3933105E0,0E0,7.8125E-3,1.8300781E0,9.939453E0,2.1757812E0,3.984375E-1,2.8850098E0,4.536877E0,6.022049E0,6.168543E0,7.8542433E0,1.3021484E1,4.2353516E0,2.3425781E1,4.1888477E2,0E0,0E0,0E0,0E0,0E0,0E0,0E0,0E0,0E0,0E0,0E0,0E0,0E0,0E0,0E0,0E0,0E0,0E0,0E0,0E0,0E0,0E0,0E0,0E0,0E0,0E0,0E0,0E0,0E0,0E0],"parents":[2147483647,0,0,1,1,2,2,3,3,4,4,5,5,6,6,7,7,8,8,9,9,10,10,11,11,12,12,13,13,14,14,15,15,17,17,18,18,19,19,20,20,21,21,22,22,23,23,24,24,25,25,26,26,27,27,28,28,29,29,30,30],"right_children":[2,4,6,8,10,12,14,16,18,20,22,24,26,28,30,32,-1,34,36,38,40,42,44,46,48,50,52,54,56,58,60,-1,-1,-1,-1,-1,-1,-1,-1,-1,-1,-1,-1,-1,-1,-1,-1,-1,-1,-1,-1,-1,-1,-1,-1,-1,-1,-1,-1,-1,-1],"split_conditions":[2E0,1.3862944E0,3E0,8.422882E0,1E0,8.987197E0,4E0,8.242756E0,1E0,9.413281E0,9.574984E0,8.740336E0,1.242925E0,1.609438E0,5E0,1E0,-3.4354612E-2,4.7623417E-1,1.0691945E1,1E0,1.0096172E1,1.9802628E-2,8.61777E-2,1.2241275E0,8.881836E0,1.21411E0,1E0,4.1210964E-1,7.090077E0,1.0308952E1,6E0,-3.1055896E-2,-2.4945986E-2,-2.8708722E-2,-8.396754E-3,-2.7673127E-2,-3.1282075E-2,-3.3522096E-2,-2.9220676E-2,-3.1561032E-2,-2.7045893E-2,-1.8375972E-2,-3.150085E-2,-5.1177023E-3,-2.8742641E-2,-1.5885437E-4,-1.1210258E-3,-2.3362439E-3,-3.4758387E-4,6.9032816E-5,1.3042236E-3,-9.3765854E-4,2.7376534E-3,2.0219428E-2,9.849337E-3,2.7776582E-2,2.140437E-2,3.714861E-2,4.6339724E-2,5.1428635E-2,6.827193E-2],"split_indices":[3,2,3,4,11,4,3,4,9,4,4,4,0,2,3,5,0,6,1,5,4,6,6,0,4,0,10,6,4,4,3,0,0,0,0,0,0,0,0,0,0,0,0,0,0,0,0,0,0,0,0,0,0,0,0,0,0,0,0,0,0],"split_type":[0,0,0,0,0,0,0,0,0,0,0,0,0,0,0,0,0,0,0,0,0,0,0,0,0,0,0,0,0,0,0,0,0,0,0,0,0,0,0,0,0,0,0,0,0,0,0,0,0,0,0,0,0,0,0,0,0,0,0,0,0],"sum_hessian":[2.2534E4,7.471E3,1.5063E4,2.275E3,5.196E3,7.14E3,7.923E3,5.87E2,1.688E3,3.444E3,1.752E3,3.189E3,3.951E3,4.47E3,3.453E3,4.34E2,1.53E2,1.045E3,6.43E2,2.717E3,7.27E2,1.544E3,2.08E2,2.564E3,6.25E2,3.13E3,8.21E2,2.218E3,2.252E3,2.572E3,8.81E2,3.88E2,4.6E1,1.044E3,1E0,1.02E2,5.41E2,2.599E3,1.18E2,6.64E2,6.3E1,5E0,1.539E3,1E0,2.07E2,1.905E3,6.59E2,3.62E2,2.63E2,2.654E3,4.76E2,7.59E2,6.2E1,2.203E3,1.5E1,2.1E1,2.231E3,2.528E3,4.4E1,6.75E2,2.06E2],"tree_param":{"num_deleted":"0","num_feature":"17","num_nodes":"61","size_leaf_vector":"1"}},{"base_weights":[-4.287531E-5,-3.1313045E0,1.5531161E0,-2.973842E0,-3.1996617E0,-2.3806874E-2,2.9740214E0,-3.0580573E0,-2.8810282E0,-3.260726E0,-3.0894592E0,-6.15261E-2,6.6455924E-3,2.0616546E0,4.1541657E0,-3.074322E0,-2.6114507E0,-2.8088443E-2,-2.9916446E0,-3.1573517E0,-3.3212907E0,-3.108612E0,-2.6215801E-2,1.086854E-2,-8.74498E-2,1.356043E-2,-1.8896548E-1,2.1424818E0,2.0077446E0,3.6950881E0,5.4886923E0,-2.9915787E-2,-3.178966E-2,-2.8179573E-2,-1.8387053E-2,-2.9946689E-2,-8.637204E-3,-3.192407E-2,-2.8853707E-2,-3.332907E-2,-2.842336E-2,-3.109341E-2,-9.012623E-3,-3.6711597E-3,2.3841175E-4,-5.3100684E-4,-1.6162418E-3,1.0382498E-3,-3.501881E-5,-1.4047787E-3,-8.521835E-3,2.114452E-2,2.3478346E-2,1.7964276E-2,2.0410838E-2,3.677727E-2,4.588662E-2,5.091511E-2,6.759252E-2],"categories":[],"categories_nodes":[],"categories_segments":[],"categories_sizes":[],"default_left":[0,0,0,0,0,0,0,0,0,0,0,0,0,0,0,0,0,0,0,0,0,0,0,0,0,0,0,0,0,0,0,0,0,0,0,0,0,0,0,0,0,0,0,0,0,0,0,0,0,0,0,0,0,0,0,0,0,0,0],"id":16,"left_children":[1,3,5,7,9,11,13,15,17,19,21,23,25,27,29,31,33,-1,35,37,39,41,-1,43,45,47,49,51,53,55,57,-1,-1,-1,-1,-1,-1,-1,-1,-1,-1,-1,-1,-1,-1,-1,-1,-1,-1,-1,-1,-1,-1,-1,-1,-1,-1,-1,-1],"loss_changes":[1.0960038E5,7.091406E1,3.3753344E4,8.982422E0,2.4898438E1,8.202871E0,8.523398E3,5.214844E-1,3.798828E-1,1.03359375E1,8.625E0,5.9877415E0,5.348112E0,1.5181641E1,2.0958164E3,2.734375E-1,2.478302E0,0E0,1.0961914E-1,2.6972656E0,2.0878906E0,8.203125E-2,0E0,4.1374617E0,5.9762554E0,5.8805485E0,4.2215996E0,5.246582E0,1.534082E1,2.3042969E1,4.106797E2,0E0,0E0,0E0,0E0,0E0,0E0,0E0,0E0,0E0,0E0,0E0,0E0,0E0,0E0,0E0,0E0,0E0,0E0,0E0,0E0,0E0,0E0,0E0,0E0,0E0,0E0,0E0,0E0],"parents":[2147483647,0,0,1,1,2,2,3,3,4,4,5,5,6,6,7,7,8,8,9,9,10,10,11,11,12,12,13,13,14,14,15,15,16,16,18,18,19,19,20,20,21,21,23,23,24,24,25,25,26,26,27,27,28,28,29,29,30,30],"right_children":[2,4,6,8,10,12,14,16,18,20,22,24,26,28,30,32,34,-1,36,38,40,42,-1,44,46,48,50,52,54,56,58,-1,-1,-1,-1,-1,-1,-1,-1,-1,-1,-1,-1,-1,-1,-1,-1,-1,-1,-1,-1,-1,-1,-1,-1,-1,-1,-1,-1],"split_conditions":[2E0,1.3862944E0,3E0,1.3102826E-1,1.5700375E-1,8.987197E0,4E0,1E0,1.0803649E1,1E0,1.0096172E1,1.0433998E1,2.7725887E0,8.764053E0,5E0,1E0,1E0,-2.8088443E-2,1.2043553E1,1.1512925E1,1E0,1.4465649E0,-2.6215801E-2,9.615806E0,1.21411E0,9.169518E0,3.1354942E0,2.3025851E0,8.945724E0,1.0308952E1,6E0,-2.9915787E-2,-3.178966E-2,-2.8179573E-2,-1.8387053E-2,-2.9946689E-2,-8.637204E-3,-3.192407E-2,-2.8853707E-2,-3.332907E-2,-2.842336E-2,-3.109341E-2,-9.012623E-3,-3.6711597E-3,2.3841175E-4,-5.3100684E-4,-1.6162418E-3,1.0382498E-3,-3.501881E-5,-1.4047787E-3,-8.521835E-3,2.114452E-2,2.3478346E-2,1.7964276E-2,2.0410838E-2,3.677727E-2,4.588662E-2,5.091511E-2,6.759252E-2],"split_indices":[3,2,3,6,6,4,3,5,1,9,4,1,8,4,3,9,13,0,1,1,5,0,0,1,0,4,2,2,4,4,3,0,0,0,0,0,0,0,0,0,0,0,0,0,0,0,0,0,0,0,0,0,0,0,0,0,0,0,0],"split_type":[0,0,0,0,0,0,0,0,0,0,0,0,0,0,0,0,0,0,0,0,0,0,0,0,0,0,0,0,0,0,0,0,0,0,0,0,0,0,0,0,0,0,0,0,0,0,0,0,0,0,0,0,0,0,0,0,0,0,0],"sum_hessian":[2.2534E4,7.471E3,1.5063E4,2.275E3,5.196E3,7.14E3,7.923E3,1.176E3,1.099E3,3.325E3,1.871E3,3.189E3,3.951E3,4.47E3,3.453E3,1.129E3,4.7E1,6.81E2,4.18E2,1.248E3,2.077E3,1.792E3,7.9E1,8.41E2,2.348E3,3.817E3,1.34E2,1.773E3,2.697E3,2.572E3,8.81E2,6.47E2,4.82E2,3.5E1,1.2E1,4.17E2,1E0,1.096E3,1.52E2,2.022E3,5.5E1,1.791E3,1E0,2.7E1,8.14E2,1.606E3,7.42E2,6.06E2,3.211E3,1.26E2,8E0,1.57E3,2.03E2,3.75E2,2.322E3,2.528E3,4.4E1,6.75E2,2.06E2],"tree_param":{"num_deleted":"0","num_feature":"17","num_nodes":"59","size_leaf_vector":"1"}},{"base_weights":[-4.6571302E-5,-3.10004E0,1.5376029E0,-2.9961767E0,-3.2019997E0,-2.3570675E-2,2.9443169E0,-2.929094E0,-3.0978727E0,-3.2478101E0,-3.0204268E0,-6.0912445E-2,6.5770494E-3,2.0410564E0,4.1126823E0,-3.0416496E0,-2.8823977E0,-3.1075366E0,-2.2466943E0,-3.306578E0,-3.1043303E0,-3.0356692E-2,-2.2141315E-2,-3.9632246E-2,-1.4800957E-1,2.5330553E-2,-6.486309E-2,1.9747286E0,2.1054776E0,3.658169E0,5.43394E0,-3.0968005E-2,-2.7067589E-2,-2.8113442E-2,-2.9988484E-2,-3.111556E-2,-1.8395914E-2,-2.4421414E-2,-1.1719239E-2,-3.3244822E-2,-2.8976312E-2,-3.116449E-2,-2.1944804E-2,-2.6510106E-3,-3.1797588E-4,-2.3070488E-3,-3.3742868E-4,-3.2352041E-3,3.086684E-4,-9.2663255E-4,2.7153355E-3,2.2276089E-2,1.9437958E-2,2.730642E-2,2.0983722E-2,3.640964E-2,4.543795E-2,5.0406713E-2,6.6919856E-2],"categories":[],"categories_nodes":[],"categories_segments":[],"categories_sizes":[],"default_left":[0,0,0,0,0,0,0,0,0,0,0,0,0,0,0,0,0,0,0,0,0,0,0,0,0,0,0,0,0,0,0,0,0,0,0,0,0,0,0,0,0,0,0,0,0,0,0,0,0,0,0,0,0,0,0,0,0,0,0],"id":17,"left_children":[1,3,5,7,9,11,13,15,17,19,21,23,25,27,29,31,33,35,37,39,41,-1,-1,43,45,47,49,51,53,55,57,-1,-1,-1,-1,-1,-1,-1,-1,-1,-1,-1,-1,-1,-1,-1,-1,-1,-1,-1,-1,-1,-1,-1,-1,-1,-1,-1,-1],"loss_changes":[1.0742242E5,6.953125E1,3.30825E4,1.6285156E1,2.1433594E1,8.03952E0,8.354102E3,3.1015625E0,5.029297E0,1.49140625E1,2.7539062E0,5.906621E0,5.2963467E0,1.4947266E1,2.0543477E3,3.5117188E0,4.9316406E0,1.6191406E0,1.3392181E0,5.765625E0,2.9082031E0,0E0,0E0,4.5225687E0,5.907488E0,6.0570073E0,7.7124076E0,1.3027344E1,4.2783203E0,2.2664062E1,4.0263672E2,0E0,0E0,0E0,0E0,0E0,0E0,0E0,0E0,0E0,0E0,0E0,0E0,0E0,0E0,0E0,0E0,0E0,0E0,0E0,0E0,0E0,0E0,0E0,0E0,0E0,0E0,0E0,0E0],"parents":[2147483647,0,0,1,1,2,2,3,3,4,4,5,5,6,6,7,7,8,8,9,9,10,10,11,11,12,12,13,13,14,14,15,15,16,16,17,17,18,18,19,19,20,20,23,23,24,24,25,25,26,26,27,27,28,28,29,29,30,30],"right_children":[2,4,6,8,10,12,14,16,18,20,22,24,26,28,30,32,34,36,38,40,42,-1,-1,44,46,48,50,52,54,56,58,-1,-1,-1,-1,-1,-1,-1,-1,-1,-1,-1,-1,-1,-1,-1,-1,-1,-1,-1,-1,-1,-1,-1,-1,-1,-1,-1,-1],"split_conditions":[2E0,1.7917595E0,3E0,1E0,9.413281E0,8.987197E0,4E0,8.486734E0,3.435897E-1,1E0,1.0463103E1,8.740336E0,1.242925E0,1.609438E0,5E0,1E0,1.3862944E0,1.0463103E1,1E0,1E0,3.435897E-1,-3.0356692E-2,-2.2141315E-2,2.9558802E-2,8.881836E0,1.0126631E1,1E0,7.9373746E0,7.090077E0,1.0308952E1,6E0,-3.0968005E-2,-2.7067589E-2,-2.8113442E-2,-2.9988484E-2,-3.111556E-2,-1.8395914E-2,-2.4421414E-2,-1.1719239E-2,-3.3244822E-2,-2.8976312E-2,-3.116449E-2,-2.1944804E-2,-2.6510106E-3,-3.1797588E-4,-2.3070488E-3,-3.3742868E-4,-3.2352041E-3,3.086684E-4,-9.2663255E-4,2.7153355E-3,2.2276089E-2,1.9437958E-2,2.730642E-2,2.0983722E-2,3.640964E-2,4.543795E-2,5.0406713E-2,6.6919856E-2],"split_indices":[3,2,3,9,4,4,3,4,6,11,4,4,0,2,3,12,2,4,12,5,6,0,0,6,4,1,10,4,4,4,3,0,0,0,0,0,0,0,0,0,0,0,0,0,0,0,0,0,0,0,0,0,0,0,0,0,0,0,0],"split_type":[0,0,0,0,0,0,0,0,0,0,0,0,0,0,0,0,0,0,0,0,0,0,0,0,0,0,0,0,0,0,0,0,0,0,0,0,0,0,0,0,0,0,0,0,0,0,0,0,0,0,0,0,0,0,0,0,0,0,0],"sum_hessian":[2.2534E4,7.471E3,1.5063E4,3.716E3,3.755E3,7.14E3,7.923E3,2.257E3,1.459E3,2.985E3,7.7E2,3.189E3,3.951E3,4.47E3,3.453E3,6.43E2,1.614E3,1.44E3,1.9E1,2.102E3,8.83E2,7.53E2,1.7E1,2.564E3,6.25E2,3.13E3,8.21E2,2.218E3,2.252E3,2.572E3,8.81E2,5.45E2,9.8E1,1.018E3,5.96E2,1.434E3,6E0,1.5E1,4E0,2.007E3,9.5E1,8.69E2,1.4E1,8.5E1,2.479E3,3.62E2,2.63E2,4.8E1,3.082E3,7.59E2,6.2E1,2.34E2,1.984E3,2.1E1,2.231E3,2.528E3,4.4E1,6.75E2,2.06E2],"tree_param":{"num_deleted":"0","num_feature":"17","num_nodes":"59","size_leaf_vector":"1"}},{"base_weights":[-5.001494E-5,-3.0690892E0,1.5222455E0,-2.9146194E0,-3.1361477E0,-2.3336155E-2,2.9149106E0,-3.061914E0,-2.8616154E0,-3.1962147E0,-3.027751E0,-6.0305387E-2,6.5108044E-3,2.0206661E0,4.0716133E0,-2.956007E0,-3.341184E-2,-2.7839482E0,-2.983321E0,-3.0947912E0,-3.2556381E0,-3.0465736E0,-2.568038E-2,1.1260959E-2,-8.5932694E-2,8.833188E-3,-5.653476E-1,2.1005008E0,1.967424E0,3.6216195E0,5.3797336E0,-3.0138085E-2,-2.4147147E-2,-2.785067E-2,-8.073759E-3,-2.681476E-2,-3.0351784E-2,-3.129467E-2,-2.825939E-2,-3.2670386E-2,-2.785658E-2,-3.1052833E-2,-2.9570319E-2,-3.632694E-3,2.4114443E-4,-5.191464E-4,-1.593931E-3,9.1992243E-4,-7.126761E-5,-6.9657015E-3,7.0149517E-3,2.1028308E-2,5.4374384E-3,1.7583767E-2,2.0004135E-2,3.6045693E-2,4.4993665E-2,4.9903397E-2,6.6253886E-2],"categories":[],"categories_nodes":[],"categories_segments":[],"categories_sizes":[],"default_left":[0,0,0,0,0,0,0,0,0,0,0,0,0,0,0,0,0,0,0,0,0,0,0,0,0,0,0,0,0,0,0,0,0,0,0,0,0,0,0,0,0,0,0,0,0,0,0,0,0,0,0,0,0,0,0,0,0,0,0],"id":18,"left_children":[1,3,5,7,9,11,13,15,17,19,21,23,25,27,29,31,-1,33,35,37,39,41,-1,43,45,47,49,51,53,55,57,-1,-1,-1,-1,-1,-1,-1,-1,-1,-1,-1,-1,-1,-1,-1,-1,-1,-1,-1,-1,-1,-1,-1,-1,-1,-1,-1,-1],"loss_changes":[1.0528784E5,6.825781E1,3.2424992E4,9.0078125E0,2.4160156E1,7.879908E0,8.1881562E3,7.5146484E0,7.658203E0,9.9765625E0,8.373047E0,5.851598E0,5.2535443E0,1.4873047E1,2.0136992E3,6.3322754E0,0E0,6.542969E-2,1.9414062E0,2.8007812E0,2.0332031E0,2.4414062E-1,0E0,4.0621653E0,5.861828E0,5.2258983E0,3.1484537E0,5.291992E0,1.5088867E1,2.2285156E1,3.9475E2,0E0,0E0,0E0,0E0,0E0,0E0,0E0,0E0,0E0,0E0,0E0,0E0,0E0,0E0,0E0,0E0,0E0,0E0,0E0,0E0,0E0,0E0,0E0,0E0,0E0,0E0,0E0,0E0],"parents":[2147483647,0,0,1,1,2,2,3,3,4,4,5,5,6,6,7,7,8,8,9,9,10,10,11,11,12,12,13,13,14,14,15,15,17,17,18,18,19,19,20,20,21,21,23,23,24,24,25,25,26,26,27,27,28,28,29,29,30,30],"right_children":[2,4,6,8,10,12,14,16,18,20,22,24,26,28,30,32,-1,34,36,38,40,42,-1,44,46,48,50,52,54,56,58,-1,-1,-1,-1,-1,-1,-1,-1,-1,-1,-1,-1,-1,-1,-1,-1,-1,-1,-1,-1,-1,-1,-1,-1,-1,-1,-1,-1],"split_conditions":[2E0,1.3862944E0,3E0,8.422882E0,1.5700375E-1,8.987197E0,4E0,8.242756E0,1E0,1E0,1.0096172E1,1.0433998E1,3.1354942E0,8.764053E0,5E0,1E0,-3.341184E-2,4.7623417E-1,1.0691945E1,1.1512925E1,1E0,1E0,-2.568038E-2,9.615806E0,1.21411E0,9.169518E0,1E0,1.4252466E0,8.945724E0,1.0308952E1,6E0,-3.0138085E-2,-2.4147147E-2,-2.785067E-2,-8.073759E-3,-2.681476E-2,-3.0351784E-2,-3.129467E-2,-2.825939E-2,-3.2670386E-2,-2.785658E-2,-3.1052833E-2,-2.9570319E-2,-3.632694E-3,2.4114443E-4,-5.191464E-4,-1.593931E-3,9.1992243E-4,-7.126761E-5,-6.9657015E-3,7.0149517E-3,2.1028308E-2,5.4374384E-3,1.7583767E-2,2.0004135E-2,3.6045693E-2,4.4993665E-2,4.9903397E-2,6.6253886E-2],"split_indices":[3,2,3,4,6,4,3,4,9,9,4,1,2,4,3,5,0,6,1,1,5,11,0,1,0,4,5,0,4,4,3,0,0,0,0,0,0,0,0,0,0,0,0,0,0,0,0,0,0,0,0,0,0,0,0,0,0,0,0],"split_type":[0,0,0,0,0,0,0,0,0,0,0,0,0,0,0,0,0,0,0,0,0,0,0,0,0,0,0,0,0,0,0,0,0,0,0,0,0,0,0,0,0,0,0,0,0,0,0,0,0,0,0,0,0,0,0,0,0,0,0],"sum_hessian":[2.2534E4,7.471E3,1.5063E4,2.275E3,5.196E3,7.14E3,7.923E3,5.87E2,1.688E3,3.325E3,1.871E3,3.189E3,3.951E3,4.47E3,3.453E3,4.34E2,1.53E2,1.045E3,6.43E2,1.248E3,2.077E3,1.792E3,7.9E1,8.41E2,2.348E3,3.936E3,1.5E1,1.773E3,2.697E3,2.572E3,8.81E2,3.88E2,4.6E1,1.044E3,1E0,1.02E2,5.41E2,1.096E3,1.52E2,2.022E3,5.5E1,1.062E3,7.3E2,2.7E1,8.14E2,1.606E3,7.42E2,6.33E2,3.303E3,1.4E1,1E0,1.77E3,3E0,3.75E2,2.322E3,2.528E3,4.4E1,6.75E2,2.06E2],"tree_param":{"num_deleted":"0","num_feature":"17","num_nodes":"59","size_leaf_vector":"1"}},{"base_weights":[-5.5415778E-5,-3.03845E0,1.50704E0,-2.9363878E0,-3.1386437E0,-2.3103481E-2,2.8857942E0,-2.870633E0,-3.0360713E0,-3.1837723E0,-2.9597945E0,-5.970435E-2,6.446079E-3,2.0004737E0,4.030954E0,-2.9808645E0,-2.8248992E0,-3.045593E0,-2.198236E0,-3.2414827E0,-3.0428803E0,-2.9747484E0,-2.1689663E-2,-3.863919E-2,-1.4592227E-1,1.3260578E-2,-1.8632579E-1,1.9347847E0,2.0642834E0,3.5854344E0,5.3260674E0,-3.0353688E-2,-2.6501544E-2,-2.755454E-2,-2.9387008E-2,-3.1462193E-2,-2.969431E-2,-2.3919968E-2,-1.1385536E-2,-3.2590743E-2,-2.8397562E-2,-3.0548394E-2,-2.1463992E-2,-2.9763965E-2,-8.667926E-3,-2.6159298E-3,-3.089215E-4,-2.278273E-3,-3.2750092E-4,1.0189251E-3,-3.4931098E-5,-1.122299E-3,-6.067656E-3,1.9412767E-2,9.195879E-3,2.684504E-2,2.0572452E-2,3.5685375E-2,4.455373E-2,4.9405098E-2,6.559455E-2],"categories":[],"categories_nodes":[],"categories_segments":[],"categories_sizes":[],"default_left":[0,0,0,0,0,0,0,0,0,0,0,0,0,0,0,0,0,0,0,0,0,0,0,0,0,0,0,0,0,0,0,0,0,0,0,0,0,0,0,0,0,0,0,0,0,0,0,0,0,0,0,0,0,0,0,0,0,0,0,0,0],"id":19,"left_children":[1,3,5,7,9,11,13,15,17,19,21,23,25,27,29,31,33,35,37,39,41,43,-1,45,47,49,51,53,55,57,59,-1,-1,-1,-1,-1,-1,-1,-1,-1,-1,-1,-1,-1,-1,-1,-1,-1,-1,-1,-1,-1,-1,-1,-1,-1,-1,-1,-1,-1,-1],"loss_changes":[1.03195734E5,6.719531E1,3.178046E4,1.56484375E1,2.0894531E1,7.7236586E0,8.025547E3,2.9628906E0,4.953125E0,1.4416016E1,2.6655273E0,5.788021E0,5.19399E0,1.4748047E1,1.9738594E3,3.5639648E0,4.6660156E0,1.7001953E0,1.3830872E0,5.607422E0,2.9204102E0,3.90625E-2,0E0,4.422271E0,5.795163E0,5.669749E0,4.13754E0,1.2839844E1,4.3115234E0,2.1921875E1,3.8702148E2,0E0,0E0,0E0,0E0,0E0,0E0,0E0,0E0,0E0,0E0,0E0,0E0,0E0,0E0,0E0,0E0,0E0,0E0,0E0,0E0,0E0,0E0,0E0,0E0,0E0,0E0,0E0,0E0,0E0,0E0],"parents":[2147483647,0,0,1,1,2,2,3,3,4,4,5,5,6,6,7,7,8,8,9,9,10,10,11,11,12,12,13,13,14,14,15,15,16,16,17,17,18,18,19,19,20,20,21,21,23,23,24,24,25,25,26,26,27,27,28,28,29,29,30,30],"right_children":[2,4,6,8,10,12,14,16,18,20,22,24,26,28,30,32,34,36,38,40,42,44,-1,46,48,50,52,54,56,58,60,-1,-1,-1,-1,-1,-1,-1,-1,-1,-1,-1,-1,-1,-1,-1,-1,-1,-1,-1,-1,-1,-1,-1,-1,-1,-1,-1,-1,-1,-1],"split_conditions":[2E0,1.7917595E0,3E0,1E0,9.413281E0,8.987197E0,4E0,8.486734E0,3.435897E-1,1E0,1.0463103E1,8.740336E0,2.7725887E0,1.609438E0,5E0,1E0,1.3862944E0,8.824677E0,1E0,1E0,3.435897E-1,1.4289676E0,-2.1689663E-2,2.9558802E-2,8.881836E0,9.169518E0,1E0,4.1210964E-1,7.090077E0,1.0308952E1,6E0,-3.0353688E-2,-2.6501544E-2,-2.755454E-2,-2.9387008E-2,-3.1462193E-2,-2.969431E-2,-2.3919968E-2,-1.1385536E-2,-3.2590743E-2,-2.8397562E-2,-3.0548394E-2,-2.1463992E-2,-2.9763965E-2,-8.667926E-3,-2.6159298E-3,-3.089215E-4,-2.278273E-3,-3.2750092E-4,1.0189251E-3,-3.4931098E-5,-1.122299E-3,-6.067656E-3,1.9412767E-2,9.195879E-3,2.684504E-2,2.0572452E-2,3.5685375E-2,4.455373E-2,4.9405098E-2,6.559455E-2],"split_indices":[3,2,3,9,4,4,3,4,6,11,4,4,8,2,3,12,2,4,12,5,6,0,0,6,4,4,14,6,4,4,3,0,0,0,0,0,0,0,0,0,0,0,0,0,0,0,0,0,0,0,0,0,0,0,0,0,0,0,0,0,0],"split_type":[0,0,0,0,0,0,0,0,0,0,0,0,0,0,0,0,0,0,0,0,0,0,0,0,0,0,0,0,0,0,0,0,0,0,0,0,0,0,0,0,0,0,0,0,0,0,0,0,0,0,0,0,0,0,0,0,0,0,0,0,0],"sum_hessian":[2.2534E4,7.471E3,1.5063E4,3.716E3,3.755E3,7.14E3,7.923E3,2.257E3,1.459E3,2.985E3,7.7E2,3.189E3,3.951E3,4.47E3,3.453E3,6.43E2,1.614E3,1.44E3,1.9E1,2.102E3,8.83E2,7.53E2,1.7E1,2.564E3,6.25E2,3.817E3,1.34E2,2.218E3,2.252E3,2.572E3,8.81E2,5.45E2,9.8E1,1.018E3,5.96E2,6.03E2,8.37E2,1.5E1,4E0,2.007E3,9.5E1,8.69E2,1.4E1,7.52E2,1E0,8.5E1,2.479E3,3.62E2,2.63E2,6.06E2,3.211E3,1.15E2,1.9E1,2.203E3,1.5E1,2.1E1,2.231E3,2.528E3,4.4E1,6.75E2,2.06E2],"tree_param":{"num_deleted":"0","num_feature":"17","num_nodes":"61","size_leaf_vector":"1"}},{"base_weights":[-6.0326554E-5,-3.0081167E0,1.4919869E0,-2.9070802E0,-3.1073034E0,-2.2873882E-2,2.85697E0,-2.841977E0,-3.0057766E0,-3.1519725E0,-2.9302745E0,-3.7793323E-2,4.899618E-2,1.9804857E0,3.9907007E0,-2.9511442E0,-2.7966852E0,-3.0151794E0,-2.1780188E0,-3.2090967E0,-3.0125108E0,-2.9450517E0,-2.1484818E-2,-3.2335263E-2,-1.8736717E-1,5.7866286E-2,-4.182362E-1,2.0595052E0,1.9277943E0,3.549611E0,5.2729373E0,-3.0050708E-2,-2.6239201E-2,-2.7279267E-2,-2.9093627E-2,-3.0191308E-2,-1.7743569E-2,-2.3695718E-2,-1.1294448E-2,-3.2264996E-2,-2.8116545E-2,-3.0243263E-2,-2.1263659E-2,-2.9466718E-2,-8.624587E-3,-3.9626018E-4,6.0730556E-4,-1.0277063E-3,-5.401033E-3,9.4381097E-4,-5.0787476E-4,-5.1312465E-3,8.346548E-3,2.0318886E-2,2.2620842E-2,1.7209169E-2,1.9604497E-2,3.532866E-2,4.41181E-2,4.8911776E-2,6.4941764E-2],"categories":[],"categories_nodes":[],"categories_segments":[],"categories_sizes":[],"default_left":[0,0,0,0,0,0,0,0,0,0,0,0,0,0,0,0,0,0,0,0,0,0,0,0,0,0,0,0,0,0,0,0,0,0,0,0,0,0,0,0,0,0,0,0,0,0,0,0,0,0,0,0,0,0,0,0,0,0,0,0,0],"id":20,"left_children":[1,3,5,7,9,11,13,15,17,19,21,23,25,27,29,31,33,35,37,39,41,43,-1,45,47,49,51,53,55,57,59,-1,-1,-1,-1,-1,-1,-1,-1,-1,-1,-1,-1,-1,-1,-1,-1,-1,-1,-1,-1,-1,-1,-1,-1,-1,-1,-1,-1,-1,-1],"loss_changes":[1.0114522E5,6.585156E1,3.1148793E4,1.5341797E1,2.0464844E1,7.658868E0,7.8661523E3,2.9101562E0,4.796875E0,1.4121094E1,2.5791016E0,4.822031E0,5.1135263E0,1.4644531E1,1.9348047E3,3.4794922E0,4.5771484E0,1.7080078E0,1.3408508E0,5.4726562E0,2.8251953E0,3.4179688E-3,0E0,3.8747225E0,6.151266E0,4.789564E0,3.1626344E0,5.328125E0,1.4853516E1,2.1564453E1,3.794414E2,0E0,0E0,0E0,0E0,0E0,0E0,0E0,0E0,0E0,0E0,0E0,0E0,0E0,0E0,0E0,0E0,0E0,0E0,0E0,0E0,0E0,0E0,0E0,0E0,0E0,0E0,0E0,0E0,0E0,0E0],"parents":[2147483647,0,0,1,1,2,2,3,3,4,4,5,5,6,6,7,7,8,8,9,9,10,10,11,11,12,12,13,13,14,14,15,15,16,16,17,17,18,18,19,19,20,20,21,21,23,23,24,24,25,25,26,26,27,27,28,28,29,29,30,30],"right_children":[2,4,6,8,10,12,14,16,18,20,22,24,26,28,30,32,34,36,38,40,42,44,-1,46,48,50,52,54,56,58,60,-1,-1,-1,-1,-1,-1,-1,-1,-1,-1,-1,-1,-1,-1,-1,-1,-1,-1,-1,-1,-1,-1,-1,-1,-1,-1,-1,-1,-1,-1],"split_conditions":[2E0,1.7917595E0,3E0,1E0,9.413281E0,9.632335E0,4E0,8.486734E0,3.435897E-1,1E0,1.0463103E1,2.7725887E0,1.34251E0,8.764053E0,5E0,1E0,1.3862944E0,1.0463103E1,1E0,1E0,3.435897E-1,1.4289676E0,-2.1484818E-2,1E0,2.3978953E0,1.0126631E1,1E0,2.3025851E0,8.945724E0,1.0308952E1,6E0,-3.0050708E-2,-2.6239201E-2,-2.7279267E-2,-2.9093627E-2,-3.0191308E-2,-1.7743569E-2,-2.3695718E-2,-1.1294448E-2,-3.2264996E-2,-2.8116545E-2,-3.0243263E-2,-2.1263659E-2,-2.9466718E-2,-8.624587E-3,-3.9626018E-4,6.0730556E-4,-1.0277063E-3,-5.401033E-3,9.4381097E-4,-5.0787476E-4,-5.1312465E-3,8.346548E-3,2.0318886E-2,2.2620842E-2,1.7209169E-2,1.9604497E-2,3.532866E-2,4.41181E-2,4.8911776E-2,6.4941764E-2],"split_indices":[3,2,3,9,4,4,3,4,6,11,4,8,0,4,3,12,2,4,12,5,6,0,0,10,2,4,12,2,4,4,3,0,0,0,0,0,0,0,0,0,0,0,0,0,0,0,0,0,0,0,0,0,0,0,0,0,0,0,0,0,0],"split_type":[0,0,0,0,0,0,0,0,0,0,0,0,0,0,0,0,0,0,0,0,0,0,0,0,0,0,0,0,0,0,0,0,0,0,0,0,0,0,0,0,0,0,0,0,0,0,0,0,0,0,0,0,0,0,0,0,0,0,0,0,0],"sum_hessian":[2.2534E4,7.471E3,1.5063E4,3.716E3,3.755E3,7.14E3,7.923E3,2.257E3,1.459E3,2.985E3,7.7E2,5.913E3,1.227E3,4.47E3,3.453E3,6.43E2,1.614E3,1.44E3,1.9E1,2.102E3,8.83E2,7.53E2,1.7E1,5.706E3,2.07E2,1.205E3,2.2E1,1.773E3,2.697E3,2.572E3,8.81E2,5.45E2,9.8E1,1.018E3,5.96E2,1.434E3,6E0,1.5E1,4E0,2.007E3,9.5E1,8.69E2,1.4E1,7.52E2,1E0,5.292E3,4.14E2,1.68E2,3.9E1,9.02E2,3.03E2,2.1E1,1E0,1.57E3,2.03E2,3.75E2,2.322E3,2.528E3,4.4E1,6.75E2,2.06E2],"tree_param":{"num_deleted":"0","num_feature":"17","num_nodes":"61","size_leaf_vector":"1"}},{"base_weights":[-6.402043E-5,-2.978085E0,1.477085E0,-2.8278973E0,-3.0432858E0,-2.2645183E-2,2.8284347E0,-2.971657E0,-2.7761753E0,-3.1019592E0,-2.9374146E0,-5.873473E-2,6.4915325E-3,1.9606986E0,3.9508495E0,-2.8669133E0,-3.2482266E-2,-2.7012546E0,-2.8935525E0,-3.0033545E0,-3.1597338E0,-2.9558127E0,-2.4883479E-2,1.1945332E-2,-8.404502E-2,2.4905507E-2,-6.3655235E-2,2.1539643E0,1.9390684E0,3.5141456E0,5.220337E0,-2.9111754E-2,-2.19617E-2,-2.7023545E-2,-7.7592228E-3,-2.5958888E-2,-2.9447807E-2,-3.037647E-2,-2.7378492E-2,-3.1708382E-2,-2.7021607E-2,-3.0131692E-2,-2.8683629E-2,-3.5915717E-3,2.4680208E-4,-5.8636593E-4,-1.803218E-3,6.281865E-5,1.2851317E-3,-9.1151556E-4,2.6905688E-3,2.1702582E-2,1.2346708E-2,1.8652974E-2,2.0096578E-2,3.497551E-2,4.368672E-2,4.842338E-2,6.429549E-2],"categories":[],"categories_nodes":[],"categories_segments":[],"categories_sizes":[],"default_left":[0,0,0,0,0,0,0,0,0,0,0,0,0,0,0,0,0,0,0,0,0,0,0,0,0,0,0,0,0,0,0,0,0,0,0,0,0,0,0,0,0,0,0,0,0,0,0,0,0,0,0,0,0,0,0,0,0,0,0],"id":21,"left_children":[1,3,5,7,9,11,13,15,17,19,21,23,25,27,29,31,-1,33,35,37,39,41,-1,43,45,47,49,51,53,55,57,-1,-1,-1,-1,-1,-1,-1,-1,-1,-1,-1,-1,-1,-1,-1,-1,-1,-1,-1,-1,-1,-1,-1,-1,-1,-1,-1,-1],"loss_changes":[9.913543E4,6.45625E1,3.0529668E4,8.673828E0,2.3171875E1,7.5093627E0,7.7099062E3,7.7211914E0,7.0371094E0,9.4609375E0,8.111328E0,5.7077007E0,5.1063075E0,1.4513672E1,1.8965195E3,6.520996E0,0E0,1.18652344E-1,2.175293E0,3.055664E0,1.9902344E0,3.4960938E-1,0E0,3.9881096E0,5.735649E0,6.04062E0,7.544477E0,3.9260254E0,1.7242188E1,2.1207031E1,3.7201172E2,0E0,0E0,0E0,0E0,0E0,0E0,0E0,0E0,0E0,0E0,0E0,0E0,0E0,0E0,0E0,0E0,0E0,0E0,0E0,0E0,0E0,0E0,0E0,0E0,0E0,0E0,0E0,0E0],"parents":[2147483647,0,0,1,1,2,2,3,3,4,4,5,5,6,6,7,7,8,8,9,9,10,10,11,11,12,12,13,13,14,14,15,15,17,17,18,18,19,19,20,20,21,21,23,23,24,24,25,25,26,26,27,27,28,28,29,29,30,30],"right_children":[2,4,6,8,10,12,14,16,18,20,22,24,26,28,30,32,-1,34,36,38,40,42,-1,44,46,48,50,52,54,56,58,-1,-1,-1,-1,-1,-1,-1,-1,-1,-1,-1,-1,-1,-1,-1,-1,-1,-1,-1,-1,-1,-1,-1,-1,-1,-1,-1,-1],"split_conditions":[2E0,1.3862944E0,3E0,8.422882E0,1.5700375E-1,8.987197E0,4E0,8.242756E0,1E0,1E0,1.0096172E1,1.0433998E1,1.242925E0,7.9373746E0,5E0,2.5649493E0,-3.2482266E-2,4.7623417E-1,1.0691945E1,1.1512925E1,1E0,1E0,-2.4883479E-2,9.615806E0,8.740336E0,1.21411E0,1E0,1.1542445E1,1.609438E0,1.0308952E1,6E0,-2.9111754E-2,-2.19617E-2,-2.7023545E-2,-7.7592228E-3,-2.5958888E-2,-2.9447807E-2,-3.037647E-2,-2.7378492E-2,-3.1708382E-2,-2.7021607E-2,-3.0131692E-2,-2.8683629E-2,-3.5915717E-3,2.4680208E-4,-5.8636593E-4,-1.803218E-3,6.281865E-5,1.2851317E-3,-9.1151556E-4,2.6905688E-3,2.1702582E-2,1.2346708E-2,1.8652974E-2,2.0096578E-2,3.497551E-2,4.368672E-2,4.842338E-2,6.429549E-2],"split_indices":[3,2,3,4,6,4,3,4,9,9,4,1,0,4,3,8,0,6,1,1,5,11,0,1,4,0,10,1,2,4,3,0,0,0,0,0,0,0,0,0,0,0,0,0,0,0,0,0,0,0,0,0,0,0,0,0,0,0,0],"split_type":[0,0,0,0,0,0,0,0,0,0,0,0,0,0,0,0,0,0,0,0,0,0,0,0,0,0,0,0,0,0,0,0,0,0,0,0,0,0,0,0,0,0,0,0,0,0,0,0,0,0,0,0,0,0,0,0,0,0,0],"sum_hessian":[2.2534E4,7.471E3,1.5063E4,2.275E3,5.196E3,7.14E3,7.923E3,5.87E2,1.688E3,3.325E3,1.871E3,3.189E3,3.951E3,4.47E3,3.453E3,4.34E2,1.53E2,1.045E3,6.43E2,1.248E3,2.077E3,1.792E3,7.9E1,8.41E2,2.348E3,3.13E3,8.21E2,4.4E2,4.03E3,2.572E3,8.81E2,4.04E2,3E1,1.044E3,1E0,1.02E2,5.41E2,1.096E3,1.52E2,2.022E3,5.5E1,1.062E3,7.3E2,2.7E1,8.14E2,1.859E3,4.89E2,2.654E3,4.76E2,7.59E2,6.2E1,4.31E2,9E0,1.984E3,2.046E3,2.528E3,4.4E1,6.75E2,2.06E2],"tree_param":{"num_deleted":"0","num_feature":"17","num_nodes":"59","size_leaf_vector":"1"}},{"base_weights":[-6.835866E-5,-2.9483542E0,1.4623315E0,-2.8490677E0,-3.0458245E0,-2.241912E-2,2.8001838E0,-2.7852337E0,-2.9458406E0,-3.0898259E0,-2.871462E0,-3.7129384E-2,4.84432E-2,1.9411077E0,3.9113965E0,-2.8920949E0,-2.740897E0,-2.9551053E0,-2.1310337E0,-3.1459217E0,-2.9528813E0,-2.8859587E0,-2.1046901E-2,-3.173254E-2,-1.8502675E-1,5.7204146E-2,-4.1304153E-1,2.019092E0,1.8891118E0,3.4790354E0,5.168261E0,-2.9454095E-2,-2.5688427E-2,-2.6736965E-2,-2.8510079E-2,-3.054503E-2,-2.8799366E-2,-2.3209361E-2,-1.0971387E-2,-3.1630203E-2,-2.7555011E-2,-2.9645411E-2,-2.0797478E-2,-2.88755E-2,-8.438043E-3,-1.2684202E-4,-6.66545E-4,-1.0124962E-3,-5.3435946E-3,9.3339337E-4,-5.03198E-4,-5.073559E-3,8.309374E-3,1.9918025E-2,2.2193512E-2,1.6844515E-2,1.9214246E-2,3.4625895E-2,4.325956E-2,4.7939856E-2,6.3655645E-2],"categories":[],"categories_nodes":[],"categories_segments":[],"categories_sizes":[],"default_left":[0,0,0,0,0,0,0,0,0,0,0,0,0,0,0,0,0,0,0,0,0,0,0,0,0,0,0,0,0,0,0,0,0,0,0,0,0,0,0,0,0,0,0,0,0,0,0,0,0,0,0,0,0,0,0,0,0,0,0,0,0],"id":22,"left_children":[1,3,5,7,9,11,13,15,17,19,21,23,25,27,29,31,33,35,37,39,41,43,-1,45,47,49,51,53,55,57,59,-1,-1,-1,-1,-1,-1,-1,-1,-1,-1,-1,-1,-1,-1,-1,-1,-1,-1,-1,-1,-1,-1,-1,-1,-1,-1,-1,-1,-1,-1],"loss_changes":[9.71656E4,6.363672E1,2.9922846E4,1.4753906E1,1.9941406E1,7.4456015E0,7.556785E3,2.7714844E0,4.723633E0,1.36484375E1,2.4956055E0,4.7145576E0,4.9884863E0,1.4314453E1,1.8589922E3,3.5327148E0,4.328125E0,1.9707031E0,1.3804016E0,5.3242188E0,2.8344727E0,1.3671875E-2,0E0,3.7954817E0,6.033243E0,4.690487E0,3.1200585E0,5.274414E0,1.4606445E1,2.0857422E1,3.6472656E2,0E0,0E0,0E0,0E0,0E0,0E0,0E0,0E0,0E0,0E0,0E0,0E0,0E0,0E0,0E0,0E0,0E0,0E0,0E0,0E0,0E0,0E0,0E0,0E0,0E0,0E0,0E0,0E0,0E0,0E0],"parents":[2147483647,0,0,1,1,2,2,3,3,4,4,5,5,6,6,7,7,8,8,9,9,10,10,11,11,12,12,13,13,14,14,15,15,16,16,17,17,18,18,19,19,20,20,21,21,23,23,24,24,25,25,26,26,27,27,28,28,29,29,30,30],"right_children":[2,4,6,8,10,12,14,16,18,20,22,24,26,28,30,32,34,36,38,40,42,44,-1,46,48,50,52,54,56,58,60,-1,-1,-1,-1,-1,-1,-1,-1,-1,-1,-1,-1,-1,-1,-1,-1,-1,-1,-1,-1,-1,-1,-1,-1,-1,-1,-1,-1,-1,-1],"split_conditions":[2E0,1.7917595E0,3E0,1E0,9.413281E0,9.632335E0,4E0,8.486734E0,3.435897E-1,1E0,1.0463103E1,2.7725887E0,1.34251E0,8.764053E0,5E0,1E0,1.3862944E0,8.824677E0,1E0,1E0,3.435897E-1,1.4289676E0,-2.1046901E-2,1E0,2.3978953E0,1.0126631E1,1E0,2.3025851E0,8.945724E0,1.0308952E1,6E0,-2.9454095E-2,-2.5688427E-2,-2.6736965E-2,-2.8510079E-2,-3.054503E-2,-2.8799366E-2,-2.3209361E-2,-1.0971387E-2,-3.1630203E-2,-2.7555011E-2,-2.9645411E-2,-2.0797478E-2,-2.88755E-2,-8.438043E-3,-1.2684202E-4,-6.66545E-4,-1.0124962E-3,-5.3435946E-3,9.3339337E-4,-5.03198E-4,-5.073559E-3,8.309374E-3,1.9918025E-2,2.2193512E-2,1.6844515E-2,1.9214246E-2,3.4625895E-2,4.325956E-2,4.7939856E-2,6.3655645E-2],"split_indices":[3,2,3,9,4,4,3,4,6,11,4,8,0,4,3,12,2,4,12,5,6,0,0,9,2,4,12,2,4,4,3,0,0,0,0,0,0,0,0,0,0,0,0,0,0,0,0,0,0,0,0,0,0,0,0,0,0,0,0,0,0],"split_type":[0,0,0,0,0,0,0,0,0,0,0,0,0,0,0,0,0,0,0,0,0,0,0,0,0,0,0,0,0,0,0,0,0,0,0,0,0,0,0,0,0,0,0,0,0,0,0,0,0,0,0,0,0,0,0,0,0,0,0,0,0],"sum_hessian":[2.2534E4,7.471E3,1.5063E4,3.716E3,3.755E3,7.14E3,7.923E3,2.257E3,1.459E3,2.985E3,7.7E2,5.913E3,1.227E3,4.47E3,3.453E3,6.43E2,1.614E3,1.44E3,1.9E1,2.102E3,8.83E2,7.53E2,1.7E1,5.706E3,2.07E2,1.205E3,2.2E1,1.773E3,2.697E3,2.572E3,8.81E2,5.45E2,9.8E1,1.018E3,5.96E2,6.03E2,8.37E2,1.5E1,4E0,2.007E3,9.5E1,8.69E2,1.4E1,7.52E2,1E0,3.693E3,2.013E3,1.68E2,3.9E1,9.02E2,3.03E2,2.1E1,1E0,1.57E3,2.03E2,3.75E2,2.322E3,2.528E3,4.4E1,6.75E2,2.06E2],"tree_param":{"num_deleted":"0","num_feature":"17","num_nodes":"61","size_leaf_vector":"1"}},{"base_weights":[-7.254019E-5,-2.9189203E0,1.4477255E0,-2.820632E0,-3.0154111E0,-2.2195408E-2,2.7722156E0,-2.75743E0,-2.9164464E0,-3.0589643E0,-2.8428233E0,-5.7794858E-2,6.5455926E-3,1.9217138E0,3.8723373E0,-2.8632593E0,-2.713522E0,-2.9255955E0,-2.111432E0,-3.1144903E0,-2.92341E0,-2.8571486E-2,-2.0848129E0,1.2066208E-2,-8.281198E-2,8.847992E-2,-9.16643E-3,1.8574884E0,1.984117E0,3.4442751E0,5.1167045E0,-2.9160092E-2,-2.5434138E-2,-2.6469855E-2,-2.8225455E-2,-3.0240081E-2,-2.851172E-2,-2.299177E-2,-1.0883619E-2,-3.1314056E-2,-2.7282327E-2,-2.9349303E-2,-2.0603368E-2,-1.1932897E-2,-2.2542987E-2,-3.5555235E-3,2.4681241E-4,-4.923789E-4,-1.5531636E-3,2.2540884E-3,1.6027056E-4,-4.2728207E-4,4.796165E-4,1.863908E-2,8.570862E-3,2.5991304E-2,1.9771662E-2,3.4279775E-2,4.283658E-2,4.7461167E-2,6.302216E-2],"categories":[],"categories_nodes":[],"categories_segments":[],"categories_sizes":[],"default_left":[0,0,0,0,0,0,0,0,0,0,0,0,0,0,0,0,0,0,0,0,0,0,0,0,0,0,0,0,0,0,0,0,0,0,0,0,0,0,0,0,0,0,0,0,0,0,0,0,0,0,0,0,0,0,0,0,0,0,0,0,0],"id":23,"left_children":[1,3,5,7,9,11,13,15,17,19,21,23,25,27,29,31,33,35,37,39,41,-1,43,45,47,49,51,53,55,57,59,-1,-1,-1,-1,-1,-1,-1,-1,-1,-1,-1,-1,-1,-1,-1,-1,-1,-1,-1,-1,-1,-1,-1,-1,-1,-1,-1,-1,-1,-1],"loss_changes":[9.523494E4,6.235547E1,2.9328098E4,1.4464844E1,1.9539062E1,7.3067913E0,7.4066914E3,2.7226562E0,4.5771484E0,1.3371094E1,2.415039E0,5.576236E0,5.088434E0,1.4234375E1,1.822207E3,3.4492188E0,4.2441406E0,1.9326172E0,1.3391876E0,5.1972656E0,2.7421875E0,0E0,2.9777527E-2,3.9135675E0,5.710449E0,6.3060756E0,6.3617992E0,1.2653809E1,4.4921875E0,2.0515625E1,3.5758203E2,0E0,0E0,0E0,0E0,0E0,0E0,0E0,0E0,0E0,0E0,0E0,0E0,0E0,0E0,0E0,0E0,0E0,0E0,0E0,0E0,0E0,0E0,0E0,0E0,0E0,0E0,0E0,0E0,0E0,0E0],"parents":[2147483647,0,0,1,1,2,2,3,3,4,4,5,5,6,6,7,7,8,8,9,9,10,10,11,11,12,12,13,13,14,14,15,15,16,16,17,17,18,18,19,19,20,20,22,22,23,23,24,24,25,25,26,26,27,27,28,28,29,29,30,30],"right_children":[2,4,6,8,10,12,14,16,18,20,22,24,26,28,30,32,34,36,38,40,42,-1,44,46,48,50,52,54,56,58,60,-1,-1,-1,-1,-1,-1,-1,-1,-1,-1,-1,-1,-1,-1,-1,-1,-1,-1,-1,-1,-1,-1,-1,-1,-1,-1,-1,-1,-1,-1],"split_conditions":[2E0,1.7917595E0,3E0,1E0,9.413281E0,8.987197E0,4E0,8.486734E0,3.435897E-1,1E0,1.0463103E1,1.0433998E1,9.169518E0,1.609438E0,5E0,1E0,1.3862944E0,8.824677E0,1E0,1E0,3.435897E-1,-2.8571486E-2,1E0,9.615806E0,1.21411E0,1.3862944E0,9.632335E0,4.1210964E-1,7.090077E0,1.0308952E1,6E0,-2.9160092E-2,-2.5434138E-2,-2.6469855E-2,-2.8225455E-2,-3.0240081E-2,-2.851172E-2,-2.299177E-2,-1.0883619E-2,-3.1314056E-2,-2.7282327E-2,-2.9349303E-2,-2.0603368E-2,-1.1932897E-2,-2.2542987E-2,-3.5555235E-3,2.4681241E-4,-4.923789E-4,-1.5531636E-3,2.2540884E-3,1.6027056E-4,-4.2728207E-4,4.796165E-4,1.863908E-2,8.570862E-3,2.5991304E-2,1.9771662E-2,3.4279775E-2,4.283658E-2,4.7461167E-2,6.302216E-2],"split_indices":[3,2,3,9,4,4,3,4,6,11,4,1,4,2,3,12,2,4,12,5,6,0,9,1,0,2,4,6,4,4,3,0,0,0,0,0,0,0,0,0,0,0,0,0,0,0,0,0,0,0,0,0,0,0,0,0,0,0,0,0,0],"split_type":[0,0,0,0,0,0,0,0,0,0,0,0,0,0,0,0,0,0,0,0,0,0,0,0,0,0,0,0,0,0,0,0,0,0,0,0,0,0,0,0,0,0,0,0,0,0,0,0,0,0,0,0,0,0,0,0,0,0,0,0,0],"sum_hessian":[2.2534E4,7.471E3,1.5063E4,3.716E3,3.755E3,7.14E3,7.923E3,2.257E3,1.459E3,2.985E3,7.7E2,3.189E3,3.951E3,4.47E3,3.453E3,6.43E2,1.614E3,1.44E3,1.9E1,2.102E3,8.83E2,7.53E2,1.7E1,8.41E2,2.348E3,6.35E2,3.316E3,2.218E3,2.252E3,2.572E3,8.81E2,5.45E2,9.8E1,1.018E3,5.96E2,6.03E2,8.37E2,1.5E1,4E0,2.007E3,9.5E1,8.69E2,1.4E1,4E0,1.3E1,2.7E1,8.14E2,1.606E3,7.42E2,2.19E2,4.16E2,2.089E3,1.227E3,2.203E3,1.5E1,2.1E1,2.231E3,2.528E3,4.4E1,6.75E2,2.06E2],"tree_param":{"num_deleted":"0","num_feature":"17","num_nodes":"61","size_leaf_vector":"1"}},{"base_weights":[-7.692095E-5,-2.889781E0,1.4332654E0,-2.7924795E0,-2.9853027E0,-2.197394E-2,2.7445264E0,-2.7299037E0,-2.8873453E0,-3.0284111E0,-2.8144772E0,-5.7218693E-2,6.4807E-3,1.9025133E0,3.8336682E0,-2.834711E0,-2.6864202E0,-2.8963802E0,-2.0920115E0,-3.0833733E0,-2.8942323E0,-2.8286154E0,-2.0658798E0,-3.6557868E-2,-1.4178388E-1,8.745763E-3,-5.5127156E-1,2.0929692E0,1.881205E0,3.4098623E0,5.0656624E0,-2.886902E-2,-2.5182363E-2,-2.6205413E-2,-2.7943667E-2,-2.9938182E-2,-2.822694E-2,-2.277622E-2,-1.07965525E-2,-3.1001074E-2,-2.7012343E-2,-2.9056145E-2,-2.041107E-2,-2.8301798E-2,-8.252997E-3,-1.1837431E-2,-2.233366E-2,-2.5677818E-3,-2.8906454E-4,-2.2294992E-3,-2.9643488E-4,9.0011023E-4,-6.8507616E-5,-6.812145E-3,6.9893645E-3,2.1090873E-2,1.1873821E-2,1.8088672E-2,1.9504325E-2,3.393711E-2,4.2417735E-2,4.698725E-2,6.2394977E-2],"categories":[],"categories_nodes":[],"categories_segments":[],"categories_sizes":[],"default_left":[0,0,0,0,0,0,0,0,0,0,0,0,0,0,0,0,0,0,0,0,0,0,0,0,0,0,0,0,0,0,0,0,0,0,0,0,0,0,0,0,0,0,0,0,0,0,0,0,0,0,0,0,0,0,0,0,0,0,0,0,0,0,0],"id":24,"left_children":[1,3,5,7,9,11,13,15,17,19,21,23,25,27,29,31,33,35,37,39,41,43,45,47,49,51,53,55,57,59,61,-1,-1,-1,-1,-1,-1,-1,-1,-1,-1,-1,-1,-1,-1,-1,-1,-1,-1,-1,-1,-1,-1,-1,-1,-1,-1,-1,-1,-1,-1,-1,-1],"loss_changes":[9.334266E4,6.111328E1,2.8745164E4,1.4181641E1,1.9136719E1,7.161914E0,7.259582E3,2.6757812E0,4.4316406E0,1.3097656E1,2.3164062E0,5.568342E0,4.997558E0,1.4208008E1,1.7861523E3,3.3671875E0,4.1621094E0,1.8964844E0,1.2990341E0,5.0742188E0,2.6538086E0,2.734375E-2,1.5686035E-2,4.3145933E0,5.6912394E0,4.9905896E0,3.075418E0,3.9326172E0,1.6658203E1,2.0173828E1,3.5058008E2,0E0,0E0,0E0,0E0,0E0,0E0,0E0,0E0,0E0,0E0,0E0,0E0,0E0,0E0,0E0,0E0,0E0,0E0,0E0,0E0,0E0,0E0,0E0,0E0,0E0,0E0,0E0,0E0,0E0,0E0,0E0,0E0],"parents":[2147483647,0,0,1,1,2,2,3,3,4,4,5,5,6,6,7,7,8,8,9,9,10,10,11,11,12,12,13,13,14,14,15,15,16,16,17,17,18,18,19,19,20,20,21,21,22,22,23,23,24,24,25,25,26,26,27,27,28,28,29,29,30,30],"right_children":[2,4,6,8,10,12,14,16,18,20,22,24,26,28,30,32,34,36,38,40,42,44,46,48,50,52,54,56,58,60,62,-1,-1,-1,-1,-1,-1,-1,-1,-1,-1,-1,-1,-1,-1,-1,-1,-1,-1,-1,-1,-1,-1,-1,-1,-1,-1,-1,-1,-1,-1,-1,-1],"split_conditions":[2E0,1.7917595E0,3E0,1E0,9.413281E0,8.987197E0,4E0,8.486734E0,3.435897E-1,1E0,1.0463103E1,8.740336E0,3.1354942E0,7.9373746E0,5E0,1E0,1.3862944E0,8.824677E0,1E0,1E0,3.435897E-1,1.4289676E0,1E0,2.9558802E-2,8.881836E0,9.169518E0,1E0,1.1542445E1,1.609438E0,1.0308952E1,6E0,-2.886902E-2,-2.5182363E-2,-2.6205413E-2,-2.7943667E-2,-2.9938182E-2,-2.822694E-2,-2.277622E-2,-1.07965525E-2,-3.1001074E-2,-2.7012343E-2,-2.9056145E-2,-2.041107E-2,-2.8301798E-2,-8.252997E-3,-1.1837431E-2,-2.233366E-2,-2.5677818E-3,-2.8906454E-4,-2.2294992E-3,-2.9643488E-4,9.0011023E-4,-6.8507616E-5,-6.812145E-3,6.9893645E-3,2.1090873E-2,1.1873821E-2,1.8088672E-2,1.9504325E-2,3.393711E-2,4.2417735E-2,4.698725E-2,6.2394977E-2],"split_indices":[3,2,3,9,4,4,3,4,6,11,4,4,2,4,3,12,2,4,12,5,6,0,9,6,4,4,5,1,2,4,3,0,0,0,0,0,0,0,0,0,0,0,0,0,0,0,0,0,0,0,0,0,0,0,0,0,0,0,0,0,0,0,0],"split_type":[0,0,0,0,0,0,0,0,0,0,0,0,0,0,0,0,0,0,0,0,0,0,0,0,0,0,0,0,0,0,0,0,0,0,0,0,0,0,0,0,0,0,0,0,0,0,0,0,0,0,0,0,0,0,0,0,0,0,0,0,0,0,0],"sum_hessian":[2.2534E4,7.471E3,1.5063E4,3.716E3,3.755E3,7.14E3,7.923E3,2.257E3,1.459E3,2.985E3,7.7E2,3.189E3,3.951E3,4.47E3,3.453E3,6.43E2,1.614E3,1.44E3,1.9E1,2.102E3,8.83E2,7.53E2,1.7E1,2.564E3,6.25E2,3.936E3,1.5E1,4.4E2,4.03E3,2.572E3,8.81E2,5.45E2,9.8E1,1.018E3,5.96E2,6.03E2,8.37E2,1.5E1,4E0,2.007E3,9.5E1,8.69E2,1.4E1,7.52E2,1E0,4E0,1.3E1,8.5E1,2.479E3,3.62E2,2.63E2,6.33E2,3.303E3,1.4E1,1E0,4.31E2,9E0,1.984E3,2.046E3,2.528E3,4.4E1,6.75E2,2.06E2],"tree_param":{"num_deleted":"0","num_feature":"17","num_nodes":"63","size_leaf_vector":"1"}},{"base_weights":[-8.178061E-5,-2.8609338E0,1.4189495E0,-2.716198E0,-2.9237697E0,-2.175477E-2,2.7171133E0,-2.7950304E0,-2.6293778E0,-2.9806638E0,-2.821124E0,-3.614991E-2,4.758939E-2,1.883504E0,3.795385E0,-2.8109825E0,-2.361262E0,-2.5592546E0,-2.7372413E0,-2.8856938E0,-3.0363119E0,-2.8390145E0,-2.3848876E-2,-3.0820137E-2,-1.8221179E-1,5.622726E-2,-4.0740445E-1,1.9604487E0,1.8322128E0,3.375793E0,5.0151296E0,-2.7350584E-2,-2.9070234E-2,-2.5671126E-2,-1.6095791E-2,-2.5608618E-2,-7.323365E-3,-2.0515298E-2,-2.7593749E-2,-2.9195985E-2,-2.6237372E-2,-1.5348704E-2,-3.0384673E-2,-2.8947704E-2,-2.7540522E-2,-3.798157E-4,6.059258E-4,-9.944183E-4,-5.273596E-3,1.0164773E-2,5.2186096E-4,-5.010662E-3,8.265772E-3,1.9627512E-2,4.5096013E-3,1.6297882E-2,1.8641884E-2,3.359787E-2,4.2002987E-2,4.6518072E-2,6.1774038E-2],"categories":[],"categories_nodes":[],"categories_segments":[],"categories_sizes":[],"default_left":[0,0,0,0,0,0,0,0,0,0,0,0,0,0,0,0,0,0,0,0,0,0,0,0,0,0,0,0,0,0,0,0,0,0,0,0,0,0,0,0,0,0,0,0,0,0,0,0,0,0,0,0,0,0,0,0,0,0,0,0,0],"id":25,"left_children":[1,3,5,7,9,11,13,15,17,19,21,23,25,27,29,31,33,35,37,39,41,43,-1,45,47,49,51,53,55,57,59,-1,-1,-1,-1,-1,-1,-1,-1,-1,-1,-1,-1,-1,-1,-1,-1,-1,-1,-1,-1,-1,-1,-1,-1,-1,-1,-1,-1,-1,-1],"loss_changes":[9.1488016E4,6.001172E1,2.8173805E4,8.228516E0,2.1945312E1,7.1300025E0,7.1154023E3,1.5078125E0,1.3144531E0,8.814453E0,7.8398438E0,4.5982966E0,4.849165E0,1.4053711E1,1.7508125E3,2.890625E-1,3.295288E0,1.274414E-1,6.982422E-1,3.4326172E0,2.0625E0,5.214844E-1,0E0,3.7383661E0,5.889674E0,4.62687E0,3.0724382E0,5.279785E0,1.4425781E1,1.9841797E1,3.4371484E2,0E0,0E0,0E0,0E0,0E0,0E0,0E0,0E0,0E0,0E0,0E0,0E0,0E0,0E0,0E0,0E0,0E0,0E0,0E0,0E0,0E0,0E0,0E0,0E0,0E0,0E0,0E0,0E0,0E0,0E0],"parents":[2147483647,0,0,1,1,2,2,3,3,4,4,5,5,6,6,7,7,8,8,9,9,10,10,11,11,12,12,13,13,14,14,15,15,16,16,17,17,18,18,19,19,20,20,21,21,23,23,24,24,25,25,26,26,27,27,28,28,29,29,30,30],"right_children":[2,4,6,8,10,12,14,16,18,20,22,24,26,28,30,32,34,36,38,40,42,44,-1,46,48,50,52,54,56,58,60,-1,-1,-1,-1,-1,-1,-1,-1,-1,-1,-1,-1,-1,-1,-1,-1,-1,-1,-1,-1,-1,-1,-1,-1,-1,-1,-1,-1,-1,-1],"split_conditions":[2E0,1.3862944E0,3E0,1.3102826E-1,1.5700375E-1,9.632335E0,4E0,1E0,1.0803649E1,1E0,1.0096172E1,2.7725887E0,1.34251E0,8.764053E0,5E0,1E0,1E0,4.7623417E-1,8.987197E0,1.1512925E1,1.1133441E0,1E0,-2.3848876E-2,1E0,2.3978953E0,8.61777E-2,1E0,1.4252466E0,8.945724E0,1.0308952E1,6E0,-2.7350584E-2,-2.9070234E-2,-2.5671126E-2,-1.6095791E-2,-2.5608618E-2,-7.323365E-3,-2.0515298E-2,-2.7593749E-2,-2.9195985E-2,-2.6237372E-2,-1.5348704E-2,-3.0384673E-2,-2.8947704E-2,-2.7540522E-2,-3.798157E-4,6.059258E-4,-9.944183E-4,-5.273596E-3,1.0164773E-2,5.2186096E-4,-5.010662E-3,8.265772E-3,1.9627512E-2,4.5096013E-3,1.6297882E-2,1.8641884E-2,3.359787E-2,4.2002987E-2,4.6518072E-2,6.1774038E-2],"split_indices":[3,2,3,6,6,4,3,5,1,9,4,8,0,4,3,9,13,6,4,1,0,11,0,10,2,6,12,0,4,4,3,0,0,0,0,0,0,0,0,0,0,0,0,0,0,0,0,0,0,0,0,0,0,0,0,0,0,0,0,0,0],"split_type":[0,0,0,0,0,0,0,0,0,0,0,0,0,0,0,0,0,0,0,0,0,0,0,0,0,0,0,0,0,0,0,0,0,0,0,0,0,0,0,0,0,0,0,0,0,0,0,0,0,0,0,0,0,0,0,0,0,0,0,0,0],"sum_hessian":[2.2534E4,7.471E3,1.5063E4,2.275E3,5.196E3,7.14E3,7.923E3,1.176E3,1.099E3,3.325E3,1.871E3,5.913E3,1.227E3,4.47E3,3.453E3,1.129E3,4.7E1,6.81E2,4.18E2,1.248E3,2.077E3,1.792E3,7.9E1,5.706E3,2.07E2,1.205E3,2.2E1,1.773E3,2.697E3,2.572E3,8.81E2,6.47E2,4.82E2,3.5E1,1.2E1,6.8E2,1E0,1.6E1,4.02E2,1.096E3,1.52E2,4E0,2.073E3,1.062E3,7.3E2,5.292E3,4.14E2,1.68E2,3.9E1,4E0,1.201E3,2.1E1,1E0,1.77E3,3E0,3.75E2,2.322E3,2.528E3,4.4E1,6.75E2,2.06E2],"tree_param":{"num_deleted":"0","num_feature":"17","num_nodes":"61","size_leaf_vector":"1"}},{"base_weights":[-8.5849606E-5,-2.8323727E0,1.4047766E0,-2.7367797E0,-2.9262192E0,-2.1536242E-2,2.6899729E0,-2.6754603E0,-2.82974E0,-2.9686728E0,-2.7580063E0,-3.5789628E-2,4.7125045E-2,1.8646823E0,3.7574842E0,-2.779021E0,-2.6325076E0,-2.8386426E0,-2.046817E0,-3.0226324E0,-2.8369462E0,-2.771857E0,-2.0245957E0,-3.0512106E-2,-1.8041955E-1,5.5674046E-2,-4.031889E-1,2.0525317E0,1.8436686E0,3.3420644E0,4.965101E0,-2.8306596E-2,-2.4661558E-2,-2.567933E-2,-2.7383184E-2,-2.842509E-2,-1.640499E-2,-2.2308564E-2,-1.0485275E-2,-3.0391732E-2,-2.6451664E-2,-2.8481783E-2,-1.9963522E-2,-2.7733935E-2,-8.07403E-3,-1.1551946E-2,-2.190482E-2,-1.173596E-4,-6.4935425E-4,-9.845303E-4,-5.222176E-3,9.143981E-4,-5.074754E-4,-4.9628336E-3,8.224444E-3,2.0684633E-2,1.1590306E-2,1.7720364E-2,1.9122304E-2,3.3262026E-2,4.1592292E-2,4.6053577E-2,6.115928E-2],"categories":[],"categories_nodes":[],"categories_segments":[],"categories_sizes":[],"default_left":[0,0,0,0,0,0,0,0,0,0,0,0,0,0,0,0,0,0,0,0,0,0,0,0,0,0,0,0,0,0,0,0,0,0,0,0,0,0,0,0,0,0,0,0,0,0,0,0,0,0,0,0,0,0,0,0,0,0,0,0,0,0,0],"id":26,"left_children":[1,3,5,7,9,11,13,15,17,19,21,23,25,27,29,31,33,35,37,39,41,43,45,47,49,51,53,55,57,59,61,-1,-1,-1,-1,-1,-1,-1,-1,-1,-1,-1,-1,-1,-1,-1,-1,-1,-1,-1,-1,-1,-1,-1,-1,-1,-1,-1,-1,-1,-1,-1,-1],"loss_changes":[8.967015E4,5.9023438E1,2.7613756E4,1.36171875E1,1.8634766E1,6.990267E0,6.9740977E3,2.727539E0,4.3671875E0,1.26484375E1,2.2197266E0,4.508578E0,4.749922E0,1.3865234E1,1.716168E3,3.4233398E0,4.0029297E0,2.0117188E0,1.3353653E0,5.091797E0,2.6606445E0,3.7109375E-2,6.555939E-2,3.6878848E0,5.7759132E0,4.5949774E0,3.032457E0,3.880127E0,1.6407227E1,1.9515625E1,3.3698438E2,0E0,0E0,0E0,0E0,0E0,0E0,0E0,0E0,0E0,0E0,0E0,0E0,0E0,0E0,0E0,0E0,0E0,0E0,0E0,0E0,0E0,0E0,0E0,0E0,0E0,0E0,0E0,0E0,0E0,0E0,0E0,0E0],"parents":[2147483647,0,0,1,1,2,2,3,3,4,4,5,5,6,6,7,7,8,8,9,9,10,10,11,11,12,12,13,13,14,14,15,15,16,16,17,17,18,18,19,19,20,20,21,21,22,22,23,23,24,24,25,25,26,26,27,27,28,28,29,29,30,30],"right_children":[2,4,6,8,10,12,14,16,18,20,22,24,26,28,30,32,34,36,38,40,42,44,46,48,50,52,54,56,58,60,62,-1,-1,-1,-1,-1,-1,-1,-1,-1,-1,-1,-1,-1,-1,-1,-1,-1,-1,-1,-1,-1,-1,-1,-1,-1,-1,-1,-1,-1,-1,-1,-1],"split_conditions":[2E0,1.7917595E0,3E0,1E0,9.413281E0,9.632335E0,4E0,8.486734E0,3.435897E-1,1E0,1.0463103E1,2.7725887E0,1.34251E0,7.9373746E0,5E0,1E0,1.3862944E0,1.0463103E1,1E0,1E0,3.435897E-1,1.4289676E0,1E0,1E0,2.3978953E0,1.0126631E1,1E0,1.1542445E1,1.609438E0,1.0308952E1,6E0,-2.8306596E-2,-2.4661558E-2,-2.567933E-2,-2.7383184E-2,-2.842509E-2,-1.640499E-2,-2.2308564E-2,-1.0485275E-2,-3.0391732E-2,-2.6451664E-2,-2.8481783E-2,-1.9963522E-2,-2.7733935E-2,-8.07403E-3,-1.1551946E-2,-2.190482E-2,-1.173596E-4,-6.4935425E-4,-9.845303E-4,-5.222176E-3,9.143981E-4,-5.074754E-4,-4.9628336E-3,8.224444E-3,2.0684633E-2,1.1590306E-2,1.7720364E-2,1.9122304E-2,3.3262026E-2,4.1592292E-2,4.6053577E-2,6.115928E-2],"split_indices":[3,2,3,9,4,4,3,4,6,11,4,8,0,4,3,12,2,4,12,5,6,0,9,9,2,4,12,1,2,4,3,0,0,0,0,0,0,0,0,0,0,0,0,0,0,0,0,0,0,0,0,0,0,0,0,0,0,0,0,0,0,0,0],"split_type":[0,0,0,0,0,0,0,0,0,0,0,0,0,0,0,0,0,0,0,0,0,0,0,0,0,0,0,0,0,0,0,0,0,0,0,0,0,0,0,0,0,0,0,0,0,0,0,0,0,0,0,0,0,0,0,0,0,0,0,0,0,0,0],"sum_hessian":[2.2534E4,7.471E3,1.5063E4,3.716E3,3.755E3,7.14E3,7.923E3,2.257E3,1.459E3,2.985E3,7.7E2,5.913E3,1.227E3,4.47E3,3.453E3,6.43E2,1.614E3,1.44E3,1.9E1,2.102E3,8.83E2,7.53E2,1.7E1,5.706E3,2.07E2,1.205E3,2.2E1,4.4E2,4.03E3,2.572E3,8.81E2,5.45E2,9.8E1,1.018E3,5.96E2,1.434E3,6E0,1.5E1,4E0,2.007E3,9.5E1,8.69E2,1.4E1,7.52E2,1E0,4E0,1.3E1,3.693E3,2.013E3,1.68E2,3.9E1,9.02E2,3.03E2,2.1E1,1E0,4.31E2,9E0,1.984E3,2.046E3,2.528E3,4.4E1,6.75E2,2.06E2],"tree_param":{"num_deleted":"0","num_feature":"17","num_nodes":"63","size_leaf_vector":"1"}},{"base_weights":[-8.989249E-5,-2.804097E0,1.3907453E0,-2.7094612E0,-2.8970037E0,-2.1321379E-2,2.6631048E0,-2.6487525E0,-2.8014956E0,-2.9390213E0,-2.7305162E0,-5.5949844E-2,6.635637E-3,1.8460511E0,3.719962E0,-2.7513127E0,-2.6062155E0,-2.8102872E0,-2.0279887E0,-2.9924333E0,-2.808632E0,-2.7441862E0,-2.0062084E0,-3.5497237E-2,-1.3966388E-1,8.7469086E-2,-8.86533E-3,1.921982E0,1.7954406E0,3.3086727E0,4.915571E0,-2.8024044E-2,-2.4417428E-2,-2.5422785E-2,-2.7109815E-2,-2.9063761E-2,-2.7376764E-2,-2.2099422E-2,-1.040139E-2,-3.0087966E-2,-2.61899E-2,-2.8197298E-2,-1.97772E-2,-2.7456965E-2,-8.033662E-3,-1.1459531E-2,-2.1701416E-2,-2.5347758E-3,-2.792393E-4,1.7994946E-3,-1.6772051E-3,2.2289283E-3,1.581275E-4,-4.1483555E-4,4.665662E-4,1.8951537E-2,2.1191647E-2,1.5951816E-2,1.8270815E-2,3.2929536E-2,4.1185606E-2,4.559372E-2,6.0550645E-2],"categories":[],"categories_nodes":[],"categories_segments":[],"categories_sizes":[],"default_left":[0,0,0,0,0,0,0,0,0,0,0,0,0,0,0,0,0,0,0,0,0,0,0,0,0,0,0,0,0,0,0,0,0,0,0,0,0,0,0,0,0,0,0,0,0,0,0,0,0,0,0,0,0,0,0,0,0,0,0,0,0,0,0],"id":27,"left_children":[1,3,5,7,9,11,13,15,17,19,21,23,25,27,29,31,33,35,37,39,41,43,45,47,49,51,53,55,57,59,61,-1,-1,-1,-1,-1,-1,-1,-1,-1,-1,-1,-1,-1,-1,-1,-1,-1,-1,-1,-1,-1,-1,-1,-1,-1,-1,-1,-1,-1,-1,-1,-1],"loss_changes":[8.788841E4,5.7847656E1,2.7064889E4,1.3347656E1,1.8246094E1,6.9136343E0,6.835582E3,2.6796875E0,4.2285156E0,1.2392578E1,2.1289062E0,5.4568644E0,4.9526176E0,1.3732422E1,1.682207E3,3.34375E0,3.9267578E0,2.0976562E0,1.2962112E0,4.970703E0,2.5751953E0,4.8828125E-3,5.155945E-2,4.2273073E0,5.643693E0,6.1681995E0,6.0091143E0,5.368164E0,1.4180664E1,1.9195312E1,3.3038477E2,0E0,0E0,0E0,0E0,0E0,0E0,0E0,0E0,0E0,0E0,0E0,0E0,0E0,0E0,0E0,0E0,0E0,0E0,0E0,0E0,0E0,0E0,0E0,0E0,0E0,0E0,0E0,0E0,0E0,0E0,0E0,0E0],"parents":[2147483647,0,0,1,1,2,2,3,3,4,4,5,5,6,6,7,7,8,8,9,9,10,10,11,11,12,12,13,13,14,14,15,15,16,16,17,17,18,18,19,19,20,20,21,21,22,22,23,23,24,24,25,25,26,26,27,27,28,28,29,29,30,30],"right_children":[2,4,6,8,10,12,14,16,18,20,22,24,26,28,30,32,34,36,38,40,42,44,46,48,50,52,54,56,58,60,62,-1,-1,-1,-1,-1,-1,-1,-1,-1,-1,-1,-1,-1,-1,-1,-1,-1,-1,-1,-1,-1,-1,-1,-1,-1,-1,-1,-1,-1,-1,-1,-1],"split_conditions":[2E0,1.7917595E0,3E0,1E0,9.413281E0,8.987197E0,4E0,8.486734E0,3.435897E-1,1E0,1.0463103E1,8.740336E0,9.169518E0,8.764053E0,5E0,1E0,1.3862944E0,8.824677E0,1E0,1E0,3.435897E-1,1.4289676E0,1E0,2.9558802E-2,1.016277E1,1.3862944E0,9.632335E0,2.3025851E0,8.945724E0,1.0308952E1,6E0,-2.8024044E-2,-2.4417428E-2,-2.5422785E-2,-2.7109815E-2,-2.9063761E-2,-2.7376764E-2,-2.2099422E-2,-1.040139E-2,-3.0087966E-2,-2.61899E-2,-2.8197298E-2,-1.97772E-2,-2.7456965E-2,-8.033662E-3,-1.1459531E-2,-2.1701416E-2,-2.5347758E-3,-2.792393E-4,1.7994946E-3,-1.6772051E-3,